%YAML:1.0
---
opencv_ml_svm:
   format: 3
   svmType: C_SVC
   kernel:
      type: RBF
      gamma: 2.9999999999999999e-01
   C: 100.
   term_criteria: { epsilon:1.1920928955078125e-07, iterations:1000 }
   var_count: 64
   class_count: 10
   class_labels: !!opencv-matrix
      rows: 10
      cols: 1
      dt: i
      data: [ 0, 1, 2, 3, 4, 5, 6, 7, 8, 9 ]
   sv_total: 211
   support_vectors:
      - [ 2.24509433e-01, 1.73008502e-01, 9.54502970e-02, 1.26240700e-01,
          1.26095757e-01, 6.18200228e-02, 6.48221374e-02, 2.29630858e-01,
          1.29612073e-01, 1.29846677e-01, 8.39088485e-02, 7.19557330e-02,
          8.18935409e-03, 0., 1.29640158e-02, 1.60842746e-01,
          1.22827403e-01, 0., 0., 1.02685906e-01, 7.49773458e-02,
          7.76623413e-02, 1.45745605e-01, 1.54561669e-01, 1.64928541e-01,
          2.22528335e-02, 0., 2.44758464e-02, 1.85862690e-01,
          1.75642356e-01, 1.93388104e-01, 2.12098971e-01, 1.28361315e-01,
          1.38580818e-02, 0., 1.13907948e-01, 1.09499671e-01,
          1.21546328e-01, 1.53858975e-01, 2.76262552e-01, 4.48549390e-02,
          0., 0., 0., 6.67494833e-02, 8.31477195e-02, 9.95729119e-02,
          2.48039663e-01, 1.61791652e-01, 1.20360583e-01, 9.08480957e-02,
          1.20223768e-01, 0., 0., 2.13651937e-02, 1.99325532e-01,
          1.94465995e-01, 1.14304632e-01, 2.05611899e-01, 1.51837721e-01,
          0., 0., 0., 1.62776574e-01 ]
      - [ 2.65720457e-01, 1.40710130e-01, 1.03578955e-01, 1.68096110e-01,
          1.16329506e-01, 0., 4.60629426e-02, 1.55952618e-01,
          1.70404047e-01, 1.31137893e-01, 9.09645259e-02, 1.31877035e-01,
          7.37591786e-03, 0., 0., 7.88326636e-02, 2.27443561e-01,
          3.03777028e-02, 0., 4.41540480e-02, 1.03812173e-01,
          1.17822908e-01, 7.82707557e-02, 2.32089877e-01, 1.54311778e-02,
          0., 5.51478518e-03, 5.88863203e-03, 1.73212752e-01,
          2.08174974e-01, 1.09932199e-01, 1.17175914e-01, 1.60743788e-01,
          0., 0., 1.50125772e-01, 1.35097444e-01, 1.40061408e-01,
          1.20683759e-01, 2.37065822e-01, 1.65068194e-01, 0., 0.,
          2.40500346e-02, 1.30799428e-01, 9.41328779e-02, 1.06455378e-01,
          1.92888007e-01, 2.16826946e-01, 8.56451169e-02, 1.05578445e-01,
          1.56212762e-01, 3.84909175e-02, 0., 0., 1.18746571e-01,
          2.20403314e-01, 1.65876046e-01, 1.69065520e-01, 1.77253902e-01,
          8.20933580e-02, 0., 7.59633677e-03, 7.76853263e-02 ]
      - [ 2.59217411e-01, 1.63793787e-01, 1.08907104e-01, 2.19205230e-01,
          8.34663734e-02, 0., 3.51284258e-02, 1.22593038e-01,
          1.98436499e-01, 9.41750258e-02, 1.02053091e-01, 1.54620335e-01,
          1.13610484e-01, 6.23779418e-03, 5.46284392e-03, 4.72242907e-02,
          2.29113996e-01, 0., 1.63918305e-02, 1.06141545e-01,
          3.02216373e-02, 1.18487582e-01, 1.34964183e-01, 2.18190312e-01,
          3.53584513e-02, 6.14396576e-03, 0., 6.49645319e-03,
          2.19315663e-01, 1.91773653e-01, 1.09385371e-01, 8.28142464e-02,
          2.16723964e-01, 0., 0., 9.25666466e-02, 1.57804340e-01,
          1.63010105e-01, 1.60039574e-01, 1.68250605e-01, 2.01213181e-01,
          3.07198288e-03, 0., 0., 1.24286115e-01, 9.46674719e-02,
          1.00156993e-01, 1.10539280e-01, 2.29641482e-01, 1.11362562e-01,
          1.28168166e-01, 0., 8.16885754e-03, 0., 3.56214009e-02,
          1.18572652e-01, 1.95850044e-01, 1.81354895e-01, 2.05515712e-01,
          1.28545880e-01, 1.31718861e-02, 0., 0., 0. ]
      - [ 1.45897970e-01, 2.13810548e-01, 1.41456470e-01, 1.68910518e-01,
          1.09179080e-01, 0., 0., 1.49520993e-01, 1.66428208e-01,
          9.23023894e-02, 1.38954759e-01, 1.42294228e-01, 1.48457680e-02,
          0., 7.25839734e-02, 1.85254052e-01, 2.47506797e-01,
          2.82094162e-02, 1.39302853e-02, 1.15481980e-01, 1.34971395e-01,
          9.32987183e-02, 8.24610963e-02, 1.67407036e-01, 1.56004399e-01,
          0., 0., 1.08486868e-01, 1.71445087e-01, 1.77197054e-01,
          1.15531653e-01, 1.41449437e-01, 1.61266178e-01, 2.56514009e-02,
          0., 0., 1.84502527e-01, 1.75328523e-01, 1.35220796e-01,
          1.98537424e-01, 1.77777365e-01, 7.61097483e-03, 0., 0.,
          4.62764837e-02, 1.23647593e-01, 1.17749892e-01, 1.54558837e-01,
          2.06792682e-01, 1.39169455e-01, 9.55343395e-02, 7.02067912e-02,
          0., 0., 0., 8.43425393e-02, 2.57187605e-01, 1.90107852e-01,
          1.27460316e-01, 1.69346377e-01, 1.21395793e-02, 0., 0.,
          1.89517234e-02 ]
      - [ 1.35292590e-01, 1.11382492e-01, 2.03628555e-01, 1.69332772e-01,
          6.04210757e-02, 0., 0., 1.87068567e-01, 1.33755118e-01,
          1.00119233e-01, 1.62394658e-01, 9.64301378e-02, 1.11254873e-02,
          0., 0., 2.15248063e-01, 5.19000851e-02, 0., 0., 6.72906488e-02,
          1.37289912e-01, 1.08811446e-01, 1.03710197e-01, 2.28341311e-01,
          1.65585205e-02, 6.75830757e-03, 6.13712799e-03, 0.,
          2.12620303e-01, 1.86802253e-01, 9.59492475e-02, 2.49906555e-01,
          1.60170168e-01, 0., 0., 6.52588904e-02, 1.97196260e-01,
          1.29129961e-01, 1.65217355e-01, 2.50916451e-01, 5.21615706e-02,
          0., 0., 0., 9.86676887e-02, 1.53321028e-01, 1.08541608e-01,
          1.67663202e-01, 1.63180873e-01, 1.66027442e-01, 9.98617336e-02,
          1.18384369e-01, 8.80412292e-03, 0., 0., 1.96923465e-01,
          1.36288151e-01, 1.61906421e-01, 1.48557678e-01, 2.21228018e-01,
          1.01661254e-02, 0., 2.61748340e-02, 1.11041106e-01 ]
      - [ 1.58849433e-01, 1.50550321e-01, 1.52579650e-01, 1.73083380e-01,
          1.71239264e-02, 7.36564305e-03, 8.49447865e-03, 1.95227444e-01,
          1.10921860e-01, 1.10158823e-01, 1.32131502e-01, 1.34365901e-01,
          1.14253731e-02, 0., 7.21160369e-03, 2.18942150e-01,
          2.02707961e-01, 6.15243725e-02, 5.64431399e-03, 4.74628340e-03,
          1.19902097e-01, 1.37815475e-01, 1.00565188e-01, 2.31923223e-01,
          5.33806253e-03, 6.34806184e-03, 5.64431399e-03, 9.32927150e-03,
          1.95893750e-01, 1.42028734e-01, 1.54857025e-01, 1.70241609e-01,
          7.33379647e-02, 0., 0., 0., 1.73584402e-01, 1.65229663e-01,
          1.18644424e-01, 2.33824492e-01, 1.50008589e-01, 4.72727753e-02,
          0., 0., 1.34828135e-01, 1.11804187e-01, 1.18001007e-01,
          2.15514436e-01, 1.70697451e-01, 1.07284442e-01, 1.14533573e-01,
          1.35887787e-01, 0., 0., 3.17403092e-03, 2.46574610e-01,
          1.42522752e-01, 1.32781103e-01, 1.30265579e-01, 1.91063076e-01,
          0., 0., 5.64431399e-03, 1.62859723e-01 ]
      - [ 2.64932573e-01, 1.23565421e-01, 1.41426191e-01, 1.53546244e-01,
          6.73719272e-02, 0., 3.82054895e-02, 2.00597003e-01,
          1.59199253e-01, 1.03986003e-01, 1.19538665e-01, 9.89800878e-03,
          1.36318812e-02, 0., 0., 1.22103378e-01, 1.67681888e-01,
          5.12555316e-02, 0., 0., 1.12035032e-02, 1.32051945e-01,
          1.06911652e-01, 2.02501953e-01, 1.35285079e-01, 3.68437394e-02,
          2.92230342e-02, 9.61825717e-03, 1.64043620e-01, 1.15570985e-01,
          2.13815331e-01, 1.81765079e-01, 7.19132461e-03, 4.55094762e-02,
          0., 0., 1.94493368e-01, 1.21443808e-01, 1.75458208e-01,
          2.64669329e-01, 5.42224832e-02, 0., 0., 7.75407329e-02,
          7.25241303e-02, 7.20836371e-02, 1.55723974e-01, 2.45418623e-01,
          1.37456805e-01, 1.30293697e-01, 1.10730760e-01, 0.,
          1.11979187e-01, 0., 9.93548706e-03, 2.02075392e-01,
          1.49126589e-01, 2.17479408e-01, 1.10067137e-01, 1.52017623e-01,
          1.03045925e-01, 0., 0., 2.05686077e-01 ]
      - [ 2.07533881e-01, 1.25086978e-01, 1.64533287e-01, 1.89954266e-01,
          1.15585281e-02, 5.59312478e-03, 2.67088581e-02, 7.46916234e-02,
          2.23827690e-01, 1.18458830e-01, 9.67545435e-02, 9.97868553e-02,
          6.47847261e-03, 0., 0., 1.63922504e-01, 1.68726668e-01,
          4.24535200e-02, 0., 0., 1.36546522e-01, 9.18035805e-02,
          1.07056014e-01, 2.26251870e-01, 1.18280184e-02, 0.,
          9.69851483e-03, 6.65138336e-03, 1.63017347e-01, 2.36086532e-01,
          1.10845275e-01, 1.78562060e-01, 1.64285943e-01, 4.95996214e-02,
          3.69720086e-02, 4.75261547e-02, 2.16482386e-01, 1.32105753e-01,
          1.09323092e-01, 2.75501192e-01, 3.72159891e-02, 0., 0.,
          6.71974719e-02, 9.45872292e-02, 1.38529107e-01, 1.14920177e-01,
          1.49117410e-01, 1.21870771e-01, 6.77412078e-02, 8.80431831e-02,
          1.78334296e-01, 0., 0., 3.14524514e-03, 2.33731955e-01,
          9.36762318e-02, 1.71568125e-01, 2.10142732e-01, 1.09740436e-01,
          1.09500036e-01, 1.37192896e-02, 1.33544290e-02, 1.98548332e-01 ]
      - [ 1.52692750e-01, 1.54823825e-01, 1.50422633e-01, 1.42893925e-01,
          7.27681369e-02, 0., 0., 1.25307322e-01, 1.90520480e-01,
          1.77729324e-01, 7.32770339e-02, 1.04313560e-01, 1.01434086e-02,
          0., 1.39138112e-02, 2.35565409e-01, 2.03817219e-01,
          5.52720390e-02, 0., 6.81765284e-03, 1.10380881e-01,
          1.34649172e-01, 8.41334015e-02, 2.40064800e-01, 6.64041936e-03,
          8.60423129e-03, 0., 7.20879016e-03, 1.57141149e-01,
          1.81180775e-01, 1.80794388e-01, 1.31483495e-01, 4.13448624e-02,
          0., 0., 4.59875837e-02, 1.35292351e-01, 2.05008879e-01,
          1.19814515e-01, 2.12352738e-01, 1.67917401e-01, 5.46627641e-02,
          0., 0., 1.36790067e-01, 7.94461668e-02, 7.73778111e-02,
          2.62389094e-01, 1.09842516e-01, 1.44897163e-01, 8.23153853e-02,
          1.30442008e-01, 0., 0., 5.73294004e-03, 1.71325162e-01,
          2.13826463e-01, 1.28028661e-01, 1.84391245e-01, 1.56636223e-01,
          6.81765284e-03, 0., 5.73294004e-03, 1.99506924e-01 ]
      - [ 1.75428465e-01, 1.06673956e-01, 1.74926206e-01, 1.51019424e-01,
          1.56647582e-02, 1.21090515e-02, 4.63826209e-03, 2.16063499e-01,
          1.39483452e-01, 6.99757561e-02, 1.22097798e-01, 7.70069212e-02,
          1.40627241e-02, 5.83230564e-03, 4.63826209e-03, 2.19968125e-01,
          2.11350709e-01, 5.11003062e-02, 0., 6.16415329e-02,
          8.61675814e-02, 7.90667981e-02, 5.28590791e-02, 2.68659055e-01,
          0., 6.55949302e-03, 5.83230564e-03, 6.93581952e-03,
          1.84662849e-01, 1.39812022e-01, 1.58143699e-01, 1.64689168e-01,
          1.62262872e-01, 3.76324914e-02, 0., 1.01120330e-01,
          1.35999009e-01, 1.64535195e-01, 1.60590023e-01, 2.53645748e-01,
          4.77686971e-02, 1.88450329e-02, 0., 2.20688023e-02,
          1.65047541e-01, 8.19991753e-02, 7.28585571e-02, 1.81068897e-01,
          1.83882862e-01, 9.01074857e-02, 9.84668061e-02, 1.08467482e-01,
          1.19709916e-01, 8.24812613e-03, 3.36365402e-02, 2.04576835e-01,
          1.67943329e-01, 1.81129679e-01, 1.46646738e-01, 1.57727957e-01,
          1.12619258e-01, 0., 1.82750914e-02, 1.66868538e-01 ]
      - [ 2.16126382e-01, 9.47175473e-02, 1.89098686e-01, 1.42627478e-01,
          6.66998774e-02, 0., 4.57936805e-03, 1.62129715e-01,
          1.72624022e-01, 1.33424625e-01, 1.15047112e-01, 0.,
          3.85077414e-03, 0., 4.95915264e-02, 1.88105389e-01,
          2.02793539e-01, 2.76996903e-02, 8.14339612e-03, 0.,
          6.89660087e-02, 1.23794422e-01, 1.01211473e-01, 1.02377392e-01,
          1.84703782e-01, 8.01265426e-03, 0., 1.45155145e-02,
          1.38318956e-01, 9.92253944e-02, 2.48955712e-01, 1.30310908e-01,
          1.81903660e-01, 0., 4.60001305e-02, 9.53086317e-02,
          1.65801063e-01, 2.00104833e-01, 1.17746487e-01, 1.96507707e-01,
          1.88036636e-01, 1.65950507e-02, 3.37547287e-02, 8.92790705e-02,
          1.16356634e-01, 1.14131600e-01, 1.34509087e-01, 1.28808200e-01,
          8.41389820e-02, 1.08300403e-01, 1.32032886e-01, 1.14935502e-01,
          1.21246405e-01, 0., 0., 5.18100709e-02, 2.64648288e-01,
          1.98765680e-01, 1.40498430e-01, 1.39136419e-01, 1.13058321e-01,
          4.36520390e-02, 4.93814759e-02, 1.75421745e-01 ]
      - [ 1.24566801e-01, 1.20585673e-01, 1.83722243e-01, 2.09593326e-01,
          1.04589444e-02, 7.02148071e-03, 7.71891046e-03, 2.08847865e-01,
          1.32296607e-01, 9.62558910e-02, 1.22080944e-01, 1.24244250e-01,
          8.26852210e-03, 0., 1.02046914e-02, 2.33046427e-01,
          3.60479653e-02, 0., 0., 0., 1.04087278e-01, 1.24412432e-01,
          9.93055999e-02, 2.32884631e-01, 3.23512480e-02, 0.,
          9.08899959e-03, 0., 2.27601722e-01, 1.44391850e-01,
          1.00515358e-01, 2.72308558e-01, 1.59125984e-01, 0.,
          4.04883176e-02, 0., 2.02736542e-01, 1.23216115e-01,
          2.05852196e-01, 1.65699854e-01, 1.71479568e-01, 0., 0., 0.,
          1.01894639e-01, 5.13023175e-02, 8.86246264e-02, 2.10151181e-01,
          1.12643555e-01, 1.17379591e-01, 1.00952931e-01, 7.92139247e-02,
          7.39559066e-03, 0., 0., 1.58562168e-01, 2.21924886e-01,
          7.93183446e-02, 1.62815198e-01, 2.13700756e-01, 3.90820242e-02,
          0., 0., 2.05420017e-01 ]
      - [ 1.46112248e-01, 1.06209248e-01, 1.72608539e-01, 1.81486979e-01,
          9.15203523e-03, 0., 7.02537550e-03, 2.24043533e-01,
          1.01502873e-01, 7.08557665e-02, 8.53232667e-02, 1.31803572e-01,
          7.84178898e-02, 0., 8.92098621e-03, 2.33393356e-01,
          1.95187166e-01, 3.06377113e-02, 0., 0., 1.06089801e-01,
          1.38037905e-01, 7.58538991e-02, 2.35946208e-01, 0., 0., 0., 0.,
          2.12533057e-01, 1.19618259e-01, 1.37578517e-01, 1.94826171e-01,
          0., 0., 0., 2.33024601e-02, 1.84647605e-01, 1.53946772e-01,
          1.74290940e-01, 2.30898649e-01, 1.26448154e-01, 0., 0., 0.,
          1.22682527e-01, 8.87513980e-02, 9.64322165e-02, 2.51771390e-01,
          1.02935068e-01, 6.94241673e-02, 7.92402476e-02, 9.73285660e-02,
          1.11691773e-01, 0., 1.66725814e-02, 1.64424896e-01,
          1.90667197e-01, 1.71013743e-01, 1.32813826e-01, 2.10057005e-01,
          1.39799640e-02, 0., 3.14485021e-02, 2.31002137e-01 ]
      - [ 1.19804792e-01, 1.15558475e-01, 1.66393578e-01, 2.30070949e-01,
          1.14098124e-01, 0., 7.45530287e-03, 0., 1.90152358e-02,
          6.66822586e-03, 1.77338660e-01, 2.27225259e-01, 1.06930293e-01,
          9.60764885e-02, 8.61285999e-02, 0., 6.24990836e-02,
          2.56480277e-01, 2.25475580e-01, 1.53313754e-02, 9.71210655e-03,
          9.12843645e-02, 8.81654769e-02, 0., 9.83306244e-02,
          1.24176309e-01, 5.76223508e-02, 1.68622091e-01, 1.45001739e-01,
          1.03995085e-01, 6.48669451e-02, 1.06323332e-01, 1.18903011e-01,
          1.80549920e-01, 1.34432197e-01, 8.96874350e-03, 2.27598205e-01,
          1.10305429e-01, 2.12047622e-01, 2.15235632e-02, 1.77369028e-01,
          1.68580428e-01, 8.17372873e-02, 7.73534030e-02, 1.38300285e-01,
          1.06422208e-01, 4.63512987e-02, 1.06445342e-01, 5.60728693e-03,
          3.53449434e-02, 8.54697302e-02, 1.33180276e-01, 2.18923375e-01,
          7.28840828e-02, 5.36373295e-02, 1.00046255e-01, 4.88157980e-02,
          9.00415629e-02, 2.81337231e-01, 1.71968028e-01, 1.53023958e-01,
          0., 5.77485282e-03, 0. ]
      - [ 1.00793399e-01, 1.58785254e-01, 1.62571117e-01, 1.57232881e-01,
          1.38154253e-01, 7.28768064e-03, 7.17806024e-03, 0.,
          9.69739910e-03, 1.07669994e-01, 1.75086185e-01, 1.83214903e-01,
          7.30230287e-02, 1.05455242e-01, 8.12657624e-02, 1.23648047e-01,
          1.86228633e-01, 3.03800553e-01, 1.69389062e-02, 1.05284993e-02,
          1.28969029e-02, 0., 9.13213491e-02, 6.81495434e-03,
          9.51339975e-02, 7.24813342e-02, 5.79925552e-02, 1.20667920e-01,
          1.54734030e-01, 8.96229446e-02, 1.11235775e-01, 8.64143297e-02,
          1.24387480e-01, 2.21091449e-01, 0., 7.17287287e-02,
          1.57290876e-01, 2.21004024e-01, 1.53961584e-01, 1.29693225e-01,
          1.71769038e-01, 2.13684171e-01, 0., 0., 1.06450908e-01,
          1.30557880e-01, 1.16714157e-01, 9.47394595e-02, 4.26810002e-03,
          9.76815745e-02, 0., 0., 2.15867028e-01, 1.25184029e-01,
          8.17706138e-02, 1.06556647e-01, 9.78565216e-02, 3.03656757e-01,
          1.11230731e-01, 1.91868573e-01, 9.73302722e-02, 0., 0., 0. ]
      - [ 1.60139993e-01, 1.41298249e-01, 1.22072592e-01, 1.53106466e-01,
          1.24168806e-01, 0., 1.15511799e-02, 5.75768109e-03,
          7.35644996e-03, 1.16303355e-01, 1.80648461e-01, 7.51299560e-02,
          1.44457534e-01, 5.65472580e-02, 1.20243035e-01, 1.00549586e-01,
          2.26102337e-01, 2.54955411e-01, 6.25092313e-02, 5.75768109e-03,
          1.62413660e-02, 7.81838968e-03, 8.23711902e-02, 8.65838602e-02,
          7.43855685e-02, 1.08905565e-02, 6.55355006e-02, 1.04505435e-01,
          1.29044592e-01, 9.53583494e-02, 1.19992286e-01, 9.45812464e-02,
          1.83221132e-01, 2.00738937e-01, 0., 7.53740966e-02,
          1.39213279e-01, 1.93638131e-01, 1.66224822e-01, 2.18858749e-01,
          2.39183277e-01, 8.18806738e-02, 0., 0., 1.22814186e-01,
          1.34633258e-01, 6.49941191e-02, 1.32874608e-01, 9.45681781e-02,
          1.01527467e-01, 0., 0., 1.98906034e-01, 1.44994259e-01,
          6.94783106e-02, 1.42634019e-01, 1.13197088e-01, 3.01990211e-01,
          1.12720706e-01, 1.45737007e-01, 1.46346539e-01, 0., 0., 0. ]
      - [ 1.26623020e-01, 1.64286941e-01, 1.70886204e-01, 1.28641367e-01,
          1.33545965e-01, 4.34157141e-02, 1.42433131e-02, 1.88591927e-02,
          3.08006387e-02, 7.23041547e-03, 0., 0., 2.26679802e-01,
          1.22100532e-01, 1.11328363e-01, 1.34079903e-01, 8.84420723e-02,
          1.00057572e-01, 4.96775322e-02, 7.19335228e-02, 1.20389685e-01,
          1.48430035e-01, 1.80468589e-01, 4.73347530e-02, 4.64082137e-02,
          1.02738105e-02, 5.78469113e-02, 8.88862088e-02, 1.76401526e-01,
          1.61386043e-01, 1.20882034e-01, 1.64468378e-01, 5.84905036e-02,
          1.03816658e-01, 7.15096295e-02, 1.35619774e-01, 1.99503914e-01,
          1.97605193e-01, 1.63079262e-01, 1.35979354e-01, 1.33128628e-01,
          2.36311942e-01, 0., 4.11493741e-02, 1.05721250e-01,
          7.20249191e-02, 0., 1.06373653e-01, 1.16672114e-01,
          8.68236274e-02, 1.45309046e-01, 0., 9.91997942e-02,
          4.84579541e-02, 1.06321312e-01, 2.08764955e-01, 2.32812598e-01,
          1.52554125e-01, 1.06465578e-01, 1.50736645e-01, 1.27056956e-01,
          1.21425949e-01, 1.87892377e-01, 1.80270374e-01 ]
      - [ 1.22580789e-01, 2.03166291e-01, 1.84179887e-01, 1.35873079e-01,
          1.36558309e-01, 6.32330915e-03, 7.25454092e-03, 0.,
          1.19604329e-02, 7.22032320e-03, 0., 4.80435342e-02,
          2.26709262e-01, 1.62426099e-01, 1.12863146e-01, 1.44192442e-01,
          1.02883779e-01, 1.10144600e-01, 9.06549171e-02, 5.00059761e-02,
          1.23228841e-01, 1.66820303e-01, 1.85239896e-01, 8.59431084e-03,
          8.45730305e-03, 1.18464082e-02, 5.03955074e-02, 9.90517810e-02,
          1.90599114e-01, 1.81848124e-01, 1.10681653e-01, 1.52228117e-01,
          9.48194414e-02, 0., 0., 1.67667538e-01, 1.34251282e-01,
          2.15563208e-01, 1.77627966e-01, 1.23244233e-01, 1.14116646e-01,
          2.52651542e-01, 6.66394085e-02, 0., 9.24513564e-02,
          5.86562008e-02, 7.31747597e-02, 0., 1.67729780e-01,
          1.25332668e-01, 1.04142942e-01, 9.27915350e-02, 0., 0., 0.,
          1.91822782e-01, 2.43042976e-01, 1.45878226e-01, 1.62395865e-01,
          1.53620154e-01, 9.54467580e-02, 0., 1.24518722e-01,
          1.68923840e-01 ]
      - [ 1.45202726e-01, 2.28393033e-01, 1.71596184e-01, 8.94448832e-02,
          2.06698909e-01, 1.09277638e-02, 8.35055392e-03, 5.38094202e-03,
          4.11649458e-02, 6.39905408e-03, 0., 1.11384004e-01,
          2.20889568e-01, 1.56541482e-01, 1.01856537e-01, 1.15893908e-01,
          1.37709290e-01, 9.28527564e-02, 1.08183563e-01, 1.31981626e-01,
          1.19765818e-01, 1.46061018e-01, 1.42690375e-01, 0., 0.,
          4.69629690e-02, 7.30681326e-03, 1.32626072e-01, 1.81754440e-01,
          1.76712140e-01, 1.12019613e-01, 9.55012143e-02, 4.55283336e-02,
          6.92101568e-02, 0., 1.05239764e-01, 1.93517268e-01,
          1.89333662e-01, 1.60692081e-01, 1.41162336e-01, 1.34490848e-01,
          2.31068075e-01, 1.02632701e-01, 0., 6.63471669e-02, 0.,
          3.95511724e-02, 7.38774613e-02, 1.86172426e-01, 1.36409119e-01,
          9.03261900e-02, 0., 0., 0., 1.47137403e-01, 1.88006938e-01,
          2.15475559e-01, 1.72717035e-01, 1.35843605e-01, 1.48122326e-01,
          0., 1.05133794e-01, 1.53131142e-01, 1.28812730e-01 ]
      - [ 5.26170321e-02, 2.23038897e-01, 1.65460840e-01, 1.49817407e-01,
          8.82093981e-02, 0., 7.29774451e-03, 0., 5.34891430e-03, 0.,
          8.99576582e-03, 8.61337259e-02, 2.56501883e-01, 1.02736324e-01,
          1.05553620e-01, 1.26635551e-01, 1.01717249e-01, 1.09808989e-01,
          9.61385667e-02, 8.64549261e-03, 1.77451417e-01, 1.35920331e-01,
          1.38271734e-01, 8.58131647e-02, 0., 0., 1.15619926e-02,
          8.00092816e-02, 1.75307244e-01, 1.81238204e-01, 1.31015778e-01,
          1.25064969e-01, 0., 9.89407897e-02, 9.29656923e-02,
          1.28628656e-01, 1.48700669e-01, 1.81739330e-01, 2.09626585e-01,
          1.24551758e-01, 1.31406084e-01, 1.82346806e-01, 1.64467111e-01,
          0., 1.40945584e-01, 5.38999960e-02, 8.67581293e-02,
          6.71123341e-02, 1.01012446e-01, 9.35297757e-02, 1.02587238e-01,
          1.49527714e-01, 0., 0., 0., 2.45028064e-01, 2.02725410e-01,
          1.46365896e-01, 1.26975596e-01, 1.86366990e-01, 8.79696980e-02,
          8.33804309e-02, 9.11341980e-02, 2.39780754e-01 ]
      - [ 2.32820168e-01, 2.73909271e-01, 1.21586304e-02, 7.61251431e-03,
          1.21080196e-02, 0., 1.08584519e-02, 4.16682139e-02,
          1.24881700e-01, 1.39285803e-01, 0., 0., 4.28083120e-03, 0., 0.,
          5.75264357e-02, 2.09813371e-01, 1.54109046e-01, 0., 0.,
          1.13514952e-01, 8.75062719e-02, 7.22348094e-02, 1.36080250e-01,
          9.67053026e-02, 1.31330892e-01, 9.05285589e-03, 1.05558522e-01,
          2.11598307e-01, 1.21056817e-01, 1.03291459e-01, 8.08827505e-02,
          8.28052461e-02, 1.04121491e-01, 8.61027539e-02, 0.,
          1.22180551e-01, 8.90691578e-02, 1.41895220e-01, 2.97804892e-01,
          1.94172859e-01, 1.55776786e-02, 0., 0., 9.40283537e-02,
          5.48707508e-02, 1.03901371e-01, 1.74448386e-01, 1.82034075e-01,
          7.37056211e-02, 8.97676349e-02, 0., 7.81628042e-02,
          1.83696821e-01, 1.10497817e-01, 1.10350430e-01, 2.91026115e-01,
          1.51242673e-01, 1.44445494e-01, 1.46976382e-01, 0.,
          9.40554813e-02, 1.34717599e-01, 2.60773897e-01 ]
      - [ 6.47066832e-02, 2.96216875e-01, 6.06337972e-02, 5.89304268e-02,
          1.70332100e-02, 6.45950809e-02, 4.94226702e-02, 4.36800495e-02,
          6.41752183e-02, 1.15488350e-01, 4.72985171e-02, 6.70422390e-02,
          8.96686986e-02, 3.50140259e-02, 5.33853844e-02, 5.74781224e-02,
          1.62693217e-01, 2.28281230e-01, 7.14921998e-03, 4.22021300e-02,
          1.35598734e-01, 9.89450291e-02, 7.44868591e-02, 4.49257270e-02,
          1.59586340e-01, 1.24350101e-01, 1.25220791e-02, 8.96413773e-02,
          2.55065590e-01, 1.09547675e-01, 8.74601156e-02, 9.50760543e-02,
          1.22319393e-01, 1.90531358e-01, 1.29397169e-01, 0.,
          1.11616991e-01, 8.55649337e-02, 1.17484771e-01, 3.04229349e-01,
          1.33306876e-01, 3.52084101e-03, 1.27768502e-01, 0.,
          9.44478214e-02, 6.20793141e-02, 7.72057325e-02, 6.91806301e-02,
          1.63922682e-01, 8.38864073e-02, 9.77330580e-02, 1.33166134e-01,
          7.43088648e-02, 1.49672568e-01, 1.27583846e-01, 2.46932104e-01,
          1.64937004e-01, 1.12480149e-01, 1.97792038e-01, 7.93591887e-02,
          1.24105774e-01, 1.29747823e-01, 1.41151518e-01, 1.94652736e-01 ]
      - [ 3.72938663e-01, 1.34111017e-01, 8.96200240e-02, 1.24550983e-02,
          1.52871329e-02, 7.40584591e-03, 4.16461332e-03, 1.00656375e-02,
          1.19612604e-01, 0., 0., 0., 3.77405807e-02, 0., 0.,
          9.05608684e-02, 2.41273895e-01, 1.28962114e-01, 0.,
          1.28173614e-02, 1.25042871e-01, 8.76550823e-02, 7.46435821e-02,
          2.04903353e-02, 1.56794295e-01, 4.70153652e-02, 8.45642667e-03,
          2.05844864e-01, 9.81478393e-02, 1.35342196e-01, 1.23408802e-01,
          1.49056852e-01, 9.31182802e-02, 0., 0., 1.40551433e-01,
          7.90788792e-03, 1.01154909e-01, 1.38179764e-01, 3.99831384e-01,
          8.92897695e-02, 0., 0., 0., 8.19701254e-02, 8.44989121e-02,
          7.03983381e-02, 1.11788787e-01, 4.14363220e-02, 9.07313302e-02,
          1.20336205e-01, 9.66495872e-02, 0., 6.71337321e-02,
          2.05068067e-01, 1.92691535e-01, 1.94487169e-01, 1.99198589e-01,
          1.22250594e-01, 1.10690176e-01, 1.16506554e-01, 1.61119640e-01,
          1.11068316e-01, 2.01123819e-01 ]
      - [ 3.38682681e-01, 1.85889184e-01, 8.28124508e-02, 1.19739352e-02,
          2.08583996e-02, 0., 1.75658856e-02, 1.10501843e-02,
          1.06453463e-01, 1.16563417e-01, 8.05263743e-02, 5.81775513e-03,
          5.17710224e-02, 0., 6.73866039e-03, 5.30722216e-02,
          2.18379930e-01, 1.63829610e-01, 6.91851601e-03, 1.19581455e-02,
          1.36152267e-01, 1.12791218e-01, 1.25374869e-01, 6.74660206e-02,
          1.45111799e-01, 6.39341101e-02, 1.57042090e-02, 2.58084647e-02,
          2.56131262e-01, 1.49155200e-01, 1.39652297e-01, 7.93450326e-02,
          0., 0., 0., 4.21526879e-02, 1.31492078e-01, 8.10980573e-02,
          2.12849215e-01, 3.31035912e-01, 6.26625493e-02, 0.,
          4.35423404e-02, 5.81775513e-03, 6.87349960e-02, 8.12405348e-02,
          1.03829302e-01, 1.51302040e-01, 9.91692990e-02, 1.00350104e-01,
          1.25972703e-01, 0., 0., 0., 1.66410282e-01, 2.77152181e-01,
          1.96700126e-01, 1.18516199e-01, 9.74176228e-02, 5.44203818e-02,
          1.48807883e-01, 1.43417612e-01, 1.53633893e-01, 1.91738114e-01 ]
      - [ 3.08050334e-01, 2.04454213e-01, 1.31831821e-02, 9.31137055e-03,
          1.37443990e-02, 1.42126502e-02, 3.85253853e-03, 9.97815188e-03,
          9.08037722e-02, 9.17899683e-02, 0., 0., 0., 0., 0.,
          6.94630668e-02, 2.15452969e-01, 1.65658578e-01, 1.34660760e-02,
          5.76088903e-03, 1.12974130e-01, 1.06207818e-01, 7.45877251e-02,
          8.77847970e-02, 1.45848602e-01, 9.19226557e-02, 1.37133859e-02,
          1.38200283e-01, 2.12148547e-01, 1.14776060e-01, 8.68262649e-02,
          1.42256632e-01, 1.36149794e-01, 0., 1.30052879e-01,
          1.32527247e-01, 1.00695565e-01, 7.93411732e-02, 1.40053257e-01,
          3.61975163e-01, 7.99063519e-02, 3.85253853e-03, 5.90786040e-02,
          8.18016902e-02, 6.43089116e-02, 0., 6.28183410e-02,
          1.21538788e-01, 1.11823440e-01, 1.14476658e-01, 5.04442118e-02,
          9.26537961e-02, 4.58146632e-03, 0., 1.70815766e-01,
          2.42749408e-01, 2.31162831e-01, 1.62423238e-01, 8.24259073e-02,
          8.05687532e-02, 1.56432554e-01, 1.66070759e-01, 1.75084636e-01,
          1.85710669e-01 ]
      - [ 1.33830562e-01, 3.39249343e-01, 1.75670162e-01, 1.20482817e-02,
          2.10624374e-02, 7.98626766e-02, 5.15029542e-02, 9.80553329e-02,
          5.92810614e-03, 9.21214372e-02, 5.10048084e-02, 0.,
          9.37315915e-03, 6.26820931e-03, 3.52487294e-03, 1.08341379e-02,
          2.73254097e-01, 0., 0., 0., 1.52481094e-01, 1.05196685e-01,
          9.01995078e-02, 1.26367167e-01, 8.52111727e-02, 1.18373901e-01,
          1.01990819e-01, 1.43549636e-01, 2.27413461e-01, 2.04788923e-01,
          1.25862986e-01, 1.27886623e-01, 3.88731919e-02, 0.,
          9.52456743e-02, 1.24140151e-01, 1.81678578e-01, 2.14746997e-01,
          1.49785966e-01, 8.55428204e-02, 5.44651151e-02, 2.55049437e-01,
          8.57726708e-02, 0., 0., 0., 0., 0., 1.15422681e-01,
          8.69604051e-02, 1.40501127e-01, 8.21131244e-02, 0., 0.,
          1.40862644e-01, 1.86016917e-01, 1.85467392e-01, 1.78809032e-01,
          1.97319642e-01, 1.30048215e-01, 1.71416447e-01, 1.18476652e-01,
          1.04483560e-01, 7.54323378e-02 ]
      - [ 1.22626998e-01, 2.95672387e-01, 2.29391515e-01, 1.42946113e-02,
          1.90609712e-02, 8.40071961e-02, 7.30072409e-02, 7.19442144e-02,
          6.56643584e-02, 1.14534788e-01, 0., 0., 6.86566439e-03,
          8.22081510e-03, 0., 9.31530073e-03, 1.84704781e-01,
          5.21449111e-02, 0., 8.11956003e-02, 1.15733877e-01,
          1.41059533e-01, 1.36532485e-01, 1.18184209e-01, 3.42461728e-02,
          9.85489488e-02, 1.89621732e-01, 1.65131658e-01, 1.78203091e-01,
          1.72868058e-01, 1.78832158e-01, 2.20065206e-01, 4.04239371e-02,
          0., 5.92740299e-03, 1.65333420e-01, 2.07901016e-01,
          1.77419111e-01, 1.07381776e-01, 7.55561590e-02, 6.71697706e-02,
          2.12111518e-01, 1.42186582e-01, 7.04891002e-03, 3.96389328e-03,
          8.38261377e-03, 8.89608916e-03, 0., 1.21126264e-01,
          1.05045505e-01, 1.41626000e-01, 7.66076446e-02, 3.20230871e-02,
          1.45756781e-01, 1.31040692e-01, 6.62374645e-02, 2.51974106e-01,
          1.35804266e-01, 1.08451292e-01, 2.24629894e-01, 1.28064409e-01,
          1.11727677e-01, 9.98261273e-02, 1.19689696e-01 ]
      - [ 1.84273869e-01, 3.28924984e-01, 1.42917633e-01, 4.31249477e-02,
          6.38375953e-02, 9.43382084e-02, 6.44096062e-02, 0.,
          1.03720337e-01, 1.14115074e-01, 3.62032466e-02, 0.,
          7.58054294e-03, 6.54458627e-03, 6.37445133e-03, 5.50331920e-03,
          2.17940763e-01, 5.34702465e-02, 0., 1.22528501e-01,
          4.02200595e-02, 1.26899421e-01, 8.32135454e-02, 1.17899649e-01,
          1.17149927e-01, 1.36105910e-01, 1.32660404e-01, 1.52294010e-01,
          2.01489016e-01, 1.28663465e-01, 1.76311329e-01, 2.41398215e-01,
          3.06364000e-02, 0., 0., 1.29856899e-01, 1.43705189e-01,
          2.31654689e-01, 1.27776384e-01, 5.56031503e-02, 1.38436928e-01,
          2.22739622e-01, 4.84249257e-02, 1.10066384e-02, 5.50331920e-03,
          0., 7.36058271e-03, 0., 1.61379769e-01, 1.27266526e-01,
          1.20292142e-01, 0., 0., 0., 1.98138103e-01, 1.34688258e-01,
          2.40235850e-01, 1.35072559e-01, 1.98508769e-01, 1.51835218e-01,
          1.05541915e-01, 1.09535165e-01, 9.04170796e-02, 5.48531786e-02 ]
      - [ 1.18285395e-01, 3.35654676e-01, 1.74762756e-01, 1.45123824e-02,
          1.42860472e-01, 1.13707617e-01, 9.00486037e-02, 0., 0.,
          2.03925341e-01, 6.70422316e-02, 0., 4.22844989e-03, 0.,
          1.07628042e-02, 0., 2.62436241e-01, 5.02850302e-03,
          3.64975929e-02, 1.22895643e-01, 1.44116059e-01, 9.52595770e-02,
          1.03880383e-01, 1.63248017e-01, 1.12953298e-01, 1.07934512e-01,
          1.23723552e-01, 1.86533809e-01, 2.22355202e-01, 1.66172564e-01,
          1.86229691e-01, 1.28260896e-01, 3.01971734e-02, 0., 0.,
          1.44038051e-01, 1.51899979e-01, 1.71724066e-01, 1.12877071e-01,
          8.31236020e-02, 5.45492321e-02, 1.50794715e-01, 1.55723438e-01,
          0., 8.45689978e-03, 0., 3.55568854e-03, 0., 0., 1.19238690e-01,
          1.29573673e-01, 9.48895141e-02, 0., 7.28530884e-02,
          1.22093163e-01, 1.68090031e-01, 1.80658698e-01, 1.78039685e-01,
          1.67989776e-01, 1.41795874e-01, 7.33675435e-02, 1.30872682e-01,
          1.35995731e-01, 1.16385184e-01 ]
      - [ 8.19573551e-02, 3.00169438e-01, 2.22291648e-01, 1.72755290e-02,
          1.16646610e-01, 7.25637898e-02, 1.01140738e-01, 6.88525811e-02,
          5.91088049e-02, 1.09110400e-01, 1.36488721e-01, 0.,
          1.17887082e-02, 0., 1.54308528e-02, 3.45293134e-02,
          2.24954188e-01, 1.15169480e-01, 0., 1.19071208e-01,
          1.14681460e-01, 6.40612394e-02, 1.16552398e-01, 1.75784722e-01,
          4.16793767e-03, 1.34064704e-01, 1.46396860e-01, 1.53521761e-01,
          2.10503027e-01, 1.61193788e-01, 1.82873875e-01, 1.50956318e-01,
          2.32060943e-02, 0., 1.05999745e-01, 1.08711489e-01,
          1.97361499e-01, 1.77756593e-01, 7.64703378e-02, 4.29635271e-02,
          7.70797282e-02, 1.15099028e-01, 2.20553964e-01, 5.24090417e-03,
          0., 0., 4.95654112e-03, 0., 4.13680002e-02, 1.13205500e-01,
          1.59463942e-01, 8.35685730e-02, 0., 1.38667360e-01,
          1.46576852e-01, 1.23408444e-01, 1.96694851e-01, 1.57934442e-01,
          1.68840349e-01, 1.78176701e-01, 1.15558095e-01, 1.09689914e-01,
          1.39226571e-01, 1.16047785e-01 ]
      - [ 1.70160145e-01, 2.85618216e-01, 1.83810472e-01, 4.51967791e-02,
          9.24174860e-02, 8.00297707e-02, 5.73389940e-02, 7.52993301e-02,
          9.97687876e-02, 1.38932556e-01, 5.36518842e-02, 0.,
          3.99891380e-03, 5.97977079e-03, 0., 0., 2.39666492e-01,
          7.29109868e-02, 0., 1.14003122e-01, 1.45524681e-01,
          8.99956450e-02, 9.81116891e-02, 1.52489394e-01, 5.66721372e-02,
          1.49589971e-01, 1.31061330e-01, 1.71970949e-01, 2.14888722e-01,
          1.48630142e-01, 1.83349162e-01, 1.28697589e-01, 3.83562334e-02,
          6.72534434e-03, 9.82913375e-03, 1.58877939e-01, 2.14637339e-01,
          1.60567001e-01, 1.24958567e-01, 1.60711873e-02, 1.11029625e-01,
          9.72369537e-02, 2.01400250e-01, 0., 9.39760078e-03,
          8.29344522e-03, 1.03016188e-02, 0., 1.18788533e-01,
          1.45897493e-01, 1.15304425e-01, 1.14854887e-01, 3.99891380e-03,
          4.60143015e-02, 1.52219236e-01, 1.57158092e-01, 1.79355487e-01,
          1.59203246e-01, 2.08969519e-01, 1.47265270e-01, 1.30273536e-01,
          1.21425152e-01, 1.57688797e-01, 1.81300379e-02 ]
      - [ 1.89418882e-01, 2.80266523e-01, 1.75160944e-01, 1.30707938e-02,
          4.31151725e-02, 3.49054746e-02, 7.16793612e-02, 8.58198479e-02,
          1.31378099e-02, 7.56350011e-02, 6.43356098e-03, 0.,
          7.45194359e-03, 1.93006825e-02, 9.68226604e-03, 6.86969189e-03,
          1.99092716e-01, 3.96865681e-02, 6.43356098e-03, 0.,
          1.36053246e-02, 1.27184674e-01, 1.38926730e-01, 1.21949233e-01,
          1.35139361e-01, 1.13125682e-01, 1.20614789e-01, 9.26324949e-02,
          1.83539525e-01, 2.29437664e-01, 1.39082238e-01, 2.29558051e-01,
          4.08159755e-02, 3.61785712e-03, 1.36330843e-01, 1.14536963e-01,
          1.95249856e-01, 2.21427739e-01, 1.02709755e-01, 1.27618939e-01,
          5.80414385e-02, 2.51902252e-01, 6.63240328e-02, 0., 0., 0., 0.,
          0., 0., 1.76585764e-01, 1.21952787e-01, 8.86999816e-02, 0., 0.,
          1.14284135e-01, 2.29540810e-01, 1.65052488e-01, 2.11075529e-01,
          9.37340856e-02, 2.31114179e-01, 1.29795194e-01, 1.21434033e-01,
          1.22809239e-01, 9.67038497e-02 ]
      - [ 1.45867363e-01, 3.18889290e-01, 1.53066263e-01, 1.42289288e-02,
          1.81238484e-02, 6.41615242e-02, 4.22479734e-02, 9.00036246e-02,
          8.20266455e-03, 8.96922275e-02, 5.34647852e-02, 0.,
          9.17085726e-03, 1.22658443e-02, 9.92397126e-03, 6.54867245e-03,
          2.08196536e-01, 1.17814347e-01, 0., 0., 7.88788870e-02,
          1.45019427e-01, 1.38769090e-01, 1.27160758e-01, 1.27339542e-01,
          9.21748355e-02, 1.31380036e-01, 1.38079673e-01, 1.94464117e-01,
          1.97245732e-01, 1.02371186e-01, 2.11437747e-01, 4.67623807e-02,
          8.44778866e-03, 1.28625140e-01, 1.10945910e-01, 1.40461043e-01,
          2.46549442e-01, 1.22342281e-01, 7.37713054e-02, 1.18905261e-01,
          2.29430541e-01, 5.56726418e-02, 0., 0., 0., 0., 0.,
          1.09489635e-01, 1.57503203e-01, 1.17230676e-01, 1.12962916e-01,
          3.65622044e-02, 1.14619210e-02, 1.92027688e-01, 1.25430286e-01,
          1.37797043e-01, 2.01689124e-01, 2.24242657e-01, 1.48420364e-01,
          1.61091864e-01, 1.04322277e-01, 1.07648835e-01, 1.23214900e-01 ]
      - [ 1.21642046e-01, 2.76676983e-01, 2.11835429e-01, 4.86050919e-02,
          1.49203800e-02, 1.13963716e-01, 1.16947100e-01, 1.00532370e-02,
          1.15661144e-01, 9.15070176e-02, 7.69930482e-02, 6.71658106e-03,
          9.40599851e-03, 6.29017036e-03, 7.18248356e-03, 1.35965729e-02,
          2.19439834e-01, 8.25291499e-02, 0., 6.71658106e-03,
          1.19233832e-01, 1.29473388e-01, 1.52022287e-01, 1.26107901e-01,
          1.36831505e-02, 1.69406563e-01, 1.34919450e-01, 1.76808089e-01,
          1.54987454e-01, 1.16468966e-01, 2.42444023e-01, 1.43345296e-01,
          3.87819260e-02, 0., 1.30957171e-01, 1.41338795e-01,
          1.99379593e-01, 1.45437866e-01, 9.16130841e-02, 8.55898261e-02,
          7.03608319e-02, 1.45501375e-01, 2.09661022e-01, 1.34554692e-02,
          6.75811525e-03, 0., 0., 0., 1.22334734e-01, 1.54266194e-01,
          8.33347589e-02, 1.06164776e-01, 8.40171278e-02, 7.77780116e-02,
          2.07672343e-01, 6.71413466e-02, 2.10459337e-01, 1.37073070e-01,
          1.61501795e-01, 1.89725816e-01, 1.15641266e-01, 1.45779416e-01,
          1.37562811e-01, 6.38787746e-02 ]
      - [ 1.31201327e-01, 3.10369194e-01, 2.02839181e-01, 9.80685838e-03,
          1.43103860e-02, 8.67763534e-03, 8.41950998e-02, 8.37649330e-02,
          1.20894825e-02, 6.94436356e-02, 3.66588421e-02, 0.,
          8.20680056e-03, 0., 9.37705580e-03, 1.73721295e-02,
          1.51636034e-01, 1.26032189e-01, 0., 5.15975291e-03,
          1.39781475e-01, 1.10628523e-01, 1.14407733e-01, 4.93838452e-02,
          1.23571426e-01, 9.83802602e-02, 1.55619532e-01, 1.02220193e-01,
          2.08272830e-01, 1.67989090e-01, 1.90016344e-01, 2.25468367e-01,
          3.15188169e-02, 0., 1.31734818e-01, 0., 2.12138683e-01,
          2.16144577e-01, 1.37393504e-01, 9.34721678e-02, 1.68657109e-01,
          1.54777095e-01, 1.56510428e-01, 0., 0., 0., 0., 0.,
          5.74300252e-02, 1.12480387e-01, 1.14232495e-01, 1.40171900e-01,
          2.44208947e-02, 6.02001734e-02, 1.53130978e-01, 2.11242557e-01,
          9.80662927e-02, 2.10632771e-01, 1.85075849e-01, 1.90268844e-01,
          1.26165152e-01, 1.35378376e-01, 1.21158846e-01, 1.03993937e-01 ]
      - [ 2.10460886e-01, 3.18127126e-01, 8.82705674e-02, 2.93657463e-02,
          2.45798342e-02, 1.03403457e-01, 7.57152438e-02, 5.36346212e-02,
          1.09799549e-01, 1.27603576e-01, 0., 0., 8.91833100e-03, 0.,
          8.38457607e-03, 1.35774892e-02, 1.92631632e-01, 7.66670257e-02,
          0., 8.13110694e-02, 1.26154572e-01, 1.21491991e-01,
          8.32446143e-02, 8.88459235e-02, 1.75957575e-01, 1.40868738e-01,
          9.12895724e-02, 1.24646455e-01, 1.91412061e-01, 1.89788595e-01,
          1.41670093e-01, 2.52863944e-01, 3.51115055e-02, 6.49466459e-03,
          8.91086012e-02, 8.89851302e-02, 1.92710966e-01, 1.82157725e-01,
          1.16404153e-01, 1.03615314e-01, 7.93862268e-02, 2.35389829e-01,
          7.25788772e-02, 7.92964268e-03, 7.12003186e-03, 1.15623707e-02,
          0., 0., 1.64325237e-01, 1.11428730e-01, 9.69764888e-02,
          6.90019578e-02, 0., 0., 1.40296116e-01, 2.32497290e-01,
          1.23553343e-01, 2.18156159e-01, 1.90273121e-01, 1.31202757e-01,
          8.30342546e-02, 9.04674232e-02, 1.16796777e-01, 1.39806882e-01 ]
      - [ 1.09384187e-01, 3.18007261e-01, 2.32797727e-01, 7.17232516e-03,
          1.74616128e-02, 9.84500423e-02, 1.16348773e-01, 9.59243253e-02,
          0., 1.28474087e-01, 9.88559127e-02, 0., 6.98587159e-03, 0., 0.,
          5.07159997e-03, 1.84174508e-01, 4.63860109e-02, 0.,
          1.24655731e-01, 1.25194386e-01, 1.04440734e-01, 1.42067835e-01,
          1.24158330e-01, 2.05740836e-02, 1.34324655e-01, 1.37415856e-01,
          1.71097085e-01, 2.20528036e-01, 2.03950718e-01, 1.26796171e-01,
          2.39583135e-01, 3.08701601e-02, 3.39158322e-03, 0.,
          1.17655061e-01, 1.86075211e-01, 1.91251472e-01, 1.12737633e-01,
          6.91433325e-02, 5.00526391e-02, 1.58599749e-01, 1.81671172e-01,
          0., 4.03329497e-03, 0., 0., 0., 0., 1.11169517e-01,
          1.58797681e-01, 0., 0., 6.44578710e-02, 1.85612813e-01,
          1.24083117e-01, 2.07160294e-01, 1.54563740e-01, 1.77003905e-01,
          1.49346903e-01, 7.30057284e-02, 1.45207986e-01, 1.09423898e-01,
          1.21919580e-01 ]
      - [ 1.61276057e-01, 3.08024049e-01, 1.03057377e-01, 2.03252118e-02,
          2.44913585e-02, 9.69263166e-02, 5.86455986e-02, 7.08592236e-02,
          5.64047508e-02, 8.15316662e-02, 7.30925798e-02, 0.,
          1.10914828e-02, 0., 1.34174451e-02, 0., 1.52319804e-01,
          1.20802432e-01, 0., 5.27139567e-03, 7.17617348e-02,
          1.49356797e-01, 1.17260173e-01, 5.05537242e-02, 1.26534611e-01,
          1.52728796e-01, 1.48164406e-01, 8.04559812e-02, 2.07004279e-01,
          9.89749134e-02, 1.81384981e-01, 2.30253145e-01, 3.91021147e-02,
          2.71260198e-02, 1.60433009e-01, 1.36183321e-01, 1.98589370e-01,
          1.90878391e-01, 1.19400062e-01, 6.76620454e-02, 1.29677221e-01,
          8.86374190e-02, 2.42141008e-01, 0., 0., 0., 0., 0.,
          8.97092223e-02, 1.04827926e-01, 1.32665128e-01, 1.12215094e-01,
          8.51595849e-02, 5.09278178e-02, 1.78903162e-01, 1.88857719e-01,
          1.37651205e-01, 1.19380176e-01, 2.14912534e-01, 1.61667749e-01,
          1.82870254e-01, 1.36990100e-01, 1.45512715e-01, 1.26574457e-01 ]
      - [ 1.80317953e-01, 1.19627550e-01, 1.18720040e-01, 2.49693438e-01,
          9.66078229e-03, 0., 0., 0., 6.83120498e-03, 9.94948111e-03,
          1.48468111e-02, 6.07389538e-03, 2.60439277e-01, 8.88374671e-02,
          9.42124873e-02, 9.96035412e-02, 3.13630611e-01, 4.06185864e-03,
          0., 0., 0., 0., 0., 0., 0., 0., 0., 0., 0., 8.86953101e-02,
          1.24712229e-01, 1.32135153e-01, 2.23366767e-01, 1.62268862e-01,
          0., 2.00115681e-01, 1.72055304e-01, 1.26392588e-01,
          1.11926630e-01, 1.68714613e-01, 3.64885032e-01, 1.03816293e-01,
          0., 0., 1.35465771e-01, 8.16071406e-02, 1.12813756e-01,
          8.09785202e-02, 1.58414945e-01, 0., 0., 0., 0., 0.,
          9.19372402e-03, 2.11042732e-01, 3.01705211e-01, 1.91961631e-01,
          1.21451743e-01, 8.26880336e-02, 1.28338695e-01, 0.,
          6.88681528e-02, 1.04922764e-01 ]
      - [ 2.62748510e-01, 1.27158120e-01, 1.24216072e-01, 1.93565711e-01,
          1.77519605e-01, 9.90438275e-03, 5.67926327e-03, 0., 0.,
          4.01584571e-03, 1.15425326e-02, 1.74625292e-02, 2.74195135e-01,
          8.37891251e-02, 1.67179227e-01, 1.27386034e-01, 3.22962672e-01,
          8.11124966e-02, 0., 0., 0., 0., 0., 0., 0., 0., 0., 0.,
          1.28460243e-01, 7.89284855e-02, 1.45021200e-01, 2.06373632e-01,
          1.63636222e-01, 5.63805178e-02, 0., 0., 2.42180288e-01,
          9.17619094e-02, 1.66309580e-01, 1.48439348e-01, 3.41214150e-01,
          1.73176080e-01, 0., 0., 0., 8.40506777e-02, 4.10430208e-02,
          1.04985930e-01, 0., 0., 0., 0., 4.77567222e-03, 0.,
          1.34907207e-02, 2.24689879e-02, 3.79306376e-01, 1.72428221e-01,
          1.35534942e-01, 8.49247910e-03, 1.18550975e-02, 1.00993169e-02,
          0., 1.65720601e-02 ]
      - [ 7.39028975e-02, 1.44589722e-01, 1.29432917e-01, 2.28509307e-01,
          1.76265556e-02, 0., 7.43104657e-03, 0., 0., 1.11528197e-02,
          1.54162254e-02, 2.16220930e-01, 1.04297519e-01, 1.27174869e-01,
          1.21324398e-01, 1.54404357e-01, 3.00999224e-01, 1.01208165e-01,
          0., 0., 0., 0., 0., 0., 0., 0., 0., 0., 0., 8.86857584e-02,
          1.18497752e-01, 8.29006806e-02, 2.88702548e-01, 0., 0., 0.,
          2.72934943e-01, 1.29416406e-01, 5.84809519e-02, 1.25531256e-01,
          3.97025347e-01, 9.74232778e-02, 2.14326810e-02, 2.74169315e-02,
          6.73122481e-02, 1.29230961e-01, 1.29701495e-01, 1.00864165e-01,
          2.12908298e-01, 0., 0., 0., 0., 0., 0., 9.50851366e-02,
          3.54751557e-01, 1.93896413e-01, 1.08981781e-01, 0.,
          1.28043562e-01, 0., 0., 7.43780136e-02 ]
      - [ 1.86541498e-01, 1.55480817e-01, 1.09520331e-01, 2.76689380e-01,
          7.95773324e-03, 6.87022973e-03, 0., 0., 6.49746228e-03,
          6.69162953e-03, 0., 2.59839892e-01, 1.28751352e-01,
          1.16345987e-01, 9.95110720e-02, 1.11068770e-01, 3.66582006e-01,
          8.74455925e-03, 0., 0., 0., 0., 0., 0., 0., 0., 0., 0.,
          9.45065096e-02, 7.56167546e-02, 1.00644335e-01, 1.06376767e-01,
          2.00319961e-01, 1.54028744e-01, 0., 1.34499758e-01,
          2.32576370e-01, 1.07341245e-01, 1.32665604e-01, 1.53267145e-01,
          2.88532019e-01, 2.25532532e-01, 0., 0., 8.69912654e-02,
          1.21980324e-01, 9.82168764e-02, 3.78833152e-02, 1.05102770e-01,
          4.26390767e-02, 0., 0., 0., 0., 0., 3.07877753e-02,
          3.83180767e-01, 1.42030671e-01, 8.72347504e-02, 1.30558252e-01,
          9.79966111e-03, 0., 0., 0. ]
      - [ 1.35141477e-01, 8.55389386e-02, 8.79136249e-02, 1.73444971e-01,
          1.02770455e-01, 1.13728363e-02, 1.19175669e-02, 0.,
          1.37676392e-02, 1.19175669e-02, 1.20995669e-02, 1.29537523e-01,
          1.93428740e-01, 9.52770859e-02, 8.18557069e-02, 1.05858177e-01,
          2.77210683e-01, 5.23637012e-02, 0., 0., 0., 0., 0., 0., 0., 0.,
          0., 0., 0., 8.40185657e-02, 1.14759982e-01, 1.32585108e-01,
          3.26759428e-01, 1.38937563e-01, 7.24215060e-02, 2.26995304e-01,
          1.02842025e-01, 0., 1.35622382e-01, 1.13423288e-01,
          4.05912012e-01, 8.04925933e-02, 0., 0., 1.06701374e-01,
          1.14987686e-01, 0., 9.11129192e-02, 2.29719326e-01,
          3.92057709e-02, 0., 0., 0., 3.42561156e-02, 4.21349611e-03,
          5.92091680e-02, 3.79833430e-01, 1.40449390e-01, 1.99968070e-01,
          6.30064635e-03, 1.32086009e-01, 0., 8.37202370e-02,
          1.01984397e-01 ]
      - [ 2.25163594e-01, 1.18735120e-01, 1.19243681e-01, 2.38861218e-01,
          9.01020691e-02, 8.67414568e-03, 1.04638161e-02, 9.55211371e-03,
          1.24436449e-02, 3.69511917e-02, 1.15303015e-02, 1.99732840e-01,
          1.42509207e-01, 1.40772521e-01, 1.26450583e-01, 1.08333476e-01,
          3.21579933e-01, 4.53850031e-02, 0., 0., 0., 0., 0., 0., 0., 0.,
          0., 0., 7.59959072e-02, 1.00837767e-01, 1.12536646e-01,
          2.11174503e-01, 2.31819779e-01, 0., 4.87013683e-02,
          2.04857945e-01, 1.43191010e-01, 8.38759467e-02, 1.59107253e-01,
          1.48353055e-01, 3.22104692e-01, 2.22210914e-01, 0., 0., 0.,
          1.06842801e-01, 6.89636543e-02, 1.46654055e-01, 1.06546327e-01,
          0., 0., 0., 6.38788333e-03, 0., 1.28155053e-02, 1.52232975e-01,
          3.59226376e-01, 1.42413244e-01, 1.16049767e-01, 7.78298303e-02,
          1.13594411e-02, 0., 0., 0. ]
      - [ 1.80945188e-01, 1.15342312e-01, 1.26864776e-01, 2.52784640e-01,
          2.14471295e-02, 1.19732320e-02, 0., 0., 1.28340544e-02,
          1.62735768e-02, 1.90586019e-02, 9.31477360e-03, 2.61781961e-01,
          9.05975252e-02, 1.26950055e-01, 1.31652474e-01, 2.56106943e-01,
          0., 0., 0., 0., 0., 0., 0., 0., 0., 0., 0., 0., 9.68145728e-02,
          1.27284184e-01, 3.13827842e-01, 2.10385904e-01, 0., 0.,
          5.89243136e-02, 2.60149747e-01, 1.14714511e-01, 8.47557187e-02,
          2.15374231e-01, 2.98277527e-01, 1.79173812e-01, 0., 0., 0.,
          1.07392736e-01, 8.99522752e-02, 1.58019796e-01, 8.48003328e-02,
          6.79533631e-02, 4.16663028e-02, 0., 0., 1.02739567e-02, 0.,
          2.17157349e-01, 3.25915217e-01, 2.12455004e-01, 5.43591715e-02,
          9.75347161e-02, 4.95387195e-03, 0., 0., 1.30731491e-02 ]
      - [ 2.10766688e-01, 1.36747420e-01, 1.23697005e-01, 2.43898615e-01,
          1.32647634e-01, 0., 0., 5.66140842e-03, 0., 1.09632108e-02, 0.,
          2.02993155e-01, 1.50523216e-01, 2.07241595e-01, 1.16101503e-01,
          1.41842276e-01, 3.14651459e-01, 1.67841062e-01, 0., 0., 0., 0.,
          0., 0., 0., 0., 0., 0., 1.30164176e-01, 1.11664474e-01,
          1.31258890e-01, 1.48338348e-01, 1.23943262e-01, 9.66428444e-02,
          1.44466097e-02, 1.32112145e-01, 2.28662968e-01, 1.45726651e-01,
          1.15022540e-01, 1.40496969e-01, 3.04975390e-01, 1.97696924e-01,
          2.71022692e-02, 0., 0., 6.72513694e-02, 1.05189860e-01,
          1.12910531e-01, 2.22319439e-02, 4.52696905e-02, 1.20903896e-02,
          0., 0., 0., 0., 2.21416000e-02, 3.46129209e-01, 2.06444055e-01,
          1.54384717e-01, 9.27814022e-02, 6.36728760e-03, 0., 0., 0. ]
      - [ 1.08269885e-01, 1.18550383e-01, 1.70427710e-01, 1.68042347e-01,
          6.02801554e-02, 1.59575760e-01, 9.28133130e-02, 1.08292222e-01,
          1.84775107e-02, 1.14574708e-01, 1.31209940e-01, 4.47695293e-02,
          9.96510405e-03, 0., 1.38367176e-01, 1.79640606e-01,
          1.31531507e-01, 1.48478821e-01, 7.33872354e-02, 0.,
          1.20387830e-01, 1.30845681e-01, 7.94801414e-02, 6.60086051e-02,
          1.05014466e-01, 1.04998402e-01, 1.62772000e-01, 9.73226652e-02,
          1.77948371e-01, 1.26229241e-01, 1.80838078e-01, 1.29387632e-01,
          3.63862477e-02, 1.09607577e-01, 1.29297704e-01, 1.44043431e-01,
          2.30971172e-01, 1.18019745e-01, 1.62997112e-01, 7.00485781e-02,
          1.30630329e-01, 1.93874329e-01, 0., 1.06749371e-01,
          1.10895663e-01, 8.29921141e-02, 1.14506565e-01, 1.26860902e-01,
          1.04505673e-01, 9.14629102e-02, 1.57776505e-01, 7.92754292e-02,
          9.97807533e-02, 7.23762065e-02, 1.46288633e-01, 1.66506752e-01,
          1.35353923e-01, 7.89068118e-02, 2.03823522e-01, 1.84483707e-01,
          1.59900188e-01, 1.03106737e-01, 9.00490806e-02, 1.34171322e-01 ]
      - [ 1.71247199e-01, 1.91434860e-01, 1.41397953e-01, 1.57049835e-01,
          7.47874007e-02, 1.17104515e-01, 1.29321858e-01, 5.65105826e-02,
          9.30091292e-02, 9.62025821e-02, 1.15982763e-01, 0.,
          1.13330809e-02, 7.17319362e-03, 9.32393819e-02, 1.87524974e-01,
          2.33577535e-01, 5.57700321e-02, 0., 1.46471737e-02,
          4.56904396e-02, 1.28815338e-01, 9.70062315e-02, 1.14593901e-01,
          6.46815225e-02, 9.07916203e-02, 7.03298301e-02, 1.22596368e-01,
          1.58450231e-01, 2.02911809e-01, 1.48779482e-01, 1.25017583e-01,
          6.19597472e-02, 8.96192119e-02, 1.02085680e-01, 1.22209080e-01,
          2.13517904e-01, 1.68630153e-01, 1.24815911e-01, 2.07671925e-01,
          1.88970819e-01, 9.72222909e-02, 0., 0., 1.12283215e-01,
          9.97192040e-02, 1.39068842e-01, 9.55033004e-02, 5.00014983e-02,
          8.29240158e-02, 1.23969138e-01, 3.63541730e-02, 1.16467550e-01,
          5.64896967e-03, 1.48196667e-01, 1.58048108e-01, 2.06947908e-01,
          1.24014646e-01, 1.17756799e-01, 2.46164382e-01, 1.45792618e-01,
          1.01865634e-01, 8.16491023e-02, 1.24442525e-01 ]
      - [ 2.17239678e-01, 1.36715949e-01, 1.59684181e-01, 1.60522535e-01,
          1.25474066e-01, 8.76808167e-02, 1.69044584e-01, 0.,
          8.57868940e-02, 1.01865523e-01, 1.14524245e-01, 7.98888057e-02,
          8.90021548e-02, 0., 1.36745587e-01, 1.57151848e-01,
          2.08872572e-01, 1.43868670e-01, 3.35340425e-02, 1.18858121e-01,
          7.88359791e-02, 8.80561024e-02, 1.48390949e-01, 0.,
          1.15823686e-01, 1.40510902e-01, 1.22622631e-01, 1.20598063e-01,
          1.73570067e-01, 1.60529092e-01, 1.46857008e-01, 1.58088759e-01,
          1.07919641e-01, 8.41511264e-02, 1.40288696e-01, 0.,
          1.15589060e-01, 1.69651821e-01, 1.33977607e-01, 1.56995848e-01,
          2.40951627e-01, 6.08579591e-02, 0., 0., 7.72288218e-02,
          8.78491029e-02, 7.91768506e-02, 1.09078921e-01, 1.57530621e-01,
          7.52235577e-02, 1.15545250e-01, 0., 0., 0., 1.81942865e-01,
          1.26420975e-01, 1.84823111e-01, 1.90477878e-01, 1.66749582e-01,
          1.17637195e-01, 0., 1.17981277e-01, 1.05288692e-01,
          1.21525697e-01 ]
      - [ 1.43771157e-01, 2.10599765e-01, 1.18527256e-01, 7.89419562e-02,
          1.64160639e-01, 1.37419462e-01, 1.28363267e-01, 1.08521901e-01,
          0., 1.21561207e-01, 1.19206220e-01, 9.99226272e-02,
          1.04358392e-02, 5.51727833e-03, 1.19320780e-01, 1.62600219e-01,
          1.86911702e-01, 1.07753970e-01, 6.11545593e-02, 6.56118663e-03,
          1.10056728e-01, 1.39499664e-01, 1.15320973e-01, 1.14934988e-01,
          1.07550144e-01, 1.21181585e-01, 1.04703121e-01, 1.25876352e-01,
          2.01858789e-01, 1.70154855e-01, 9.71453786e-02, 1.55614346e-01,
          1.23374544e-01, 1.05107620e-01, 1.41163722e-01, 1.38008639e-01,
          1.44109309e-01, 1.29283577e-01, 1.63225755e-01, 1.61155686e-01,
          1.28816843e-01, 1.68746337e-01, 0., 0., 8.83355066e-02,
          1.09022334e-01, 1.06514052e-01, 7.53547996e-02, 1.32292807e-01,
          1.01192094e-01, 1.28936335e-01, 1.04317665e-01, 0., 0.,
          1.59572452e-01, 1.33051991e-01, 1.85579911e-01, 9.45954248e-02,
          1.90309778e-01, 1.81748226e-01, 1.00461788e-01, 1.23014256e-01,
          1.07305065e-01, 1.05294526e-01 ]
      - [ 1.47573948e-01, 1.60722911e-01, 1.81263953e-01, 1.70003340e-01,
          1.12731986e-01, 1.33109137e-01, 8.06449652e-02, 1.15472116e-01,
          1.13562949e-01, 7.44252354e-02, 8.53148773e-02, 6.04403503e-02,
          1.21529758e-01, 9.74094123e-03, 1.40796468e-01, 1.80417880e-01,
          1.96225733e-01, 1.61443666e-01, 0., 1.20961696e-01,
          7.31234252e-02, 9.12648737e-02, 1.30642131e-01, 5.91122657e-02,
          1.19055137e-01, 1.46496609e-01, 9.60500762e-02, 7.52220899e-02,
          2.27464318e-01, 1.28124148e-01, 1.76350415e-01, 1.40186623e-01,
          1.15918279e-01, 1.13863274e-01, 1.10356353e-01, 0.,
          1.16309837e-01, 1.88196808e-01, 1.61683694e-01, 1.67086527e-01,
          1.75598860e-01, 1.28888801e-01, 0., 0., 5.61740026e-02,
          8.76684710e-02, 9.97284502e-02, 8.98842290e-02, 1.50542259e-01,
          1.01201124e-01, 8.60641599e-02, 7.07707256e-02, 1.57773905e-02,
          0., 1.26413032e-01, 2.11629763e-01, 1.34064198e-01,
          1.91427112e-01, 1.59696028e-01, 1.38893127e-01, 3.00040096e-02,
          1.35814473e-01, 1.10385686e-01, 7.56210610e-02 ]
      - [ 1.72249898e-01, 9.59594697e-02, 1.61469385e-01, 1.79141745e-01,
          1.68516964e-01, 1.20128907e-01, 8.08159709e-02, 7.76853710e-02,
          9.17179883e-02, 9.58504453e-02, 1.25922367e-01, 9.67509449e-02,
          9.85862464e-02, 1.41609320e-02, 1.21674731e-01, 1.59318894e-01,
          2.00482935e-01, 1.22374400e-01, 0., 7.56592676e-02,
          1.33145675e-01, 9.33080688e-02, 1.34451330e-01, 1.21019915e-01,
          9.99339074e-02, 7.56199062e-02, 1.42663613e-01, 1.01430878e-01,
          2.36966848e-01, 1.62364051e-01, 1.03335515e-01, 1.39868632e-01,
          1.06225103e-01, 6.79522604e-02, 1.08966455e-01, 1.12282686e-01,
          1.81561440e-01, 1.07703112e-01, 1.93808034e-01, 1.36597276e-01,
          1.58362374e-01, 1.19961828e-01, 4.13169414e-02, 0.,
          3.75624583e-03, 1.33594140e-01, 1.22154161e-01, 9.69510451e-02,
          1.04977325e-01, 1.42260045e-01, 7.90795609e-02, 1.02524094e-01,
          7.92087018e-02, 0., 1.72924459e-01, 1.13196619e-01,
          1.21544182e-01, 1.79677606e-01, 1.66527301e-01, 1.74095124e-01,
          1.01461791e-01, 1.47722229e-01, 1.06451735e-01, 7.34812170e-02 ]
      - [ 8.62943530e-02, 1.30133018e-01, 1.91350892e-01, 1.82009473e-01,
          1.01819880e-01, 1.18557796e-01, 7.01547414e-02, 1.38319880e-01,
          7.69286826e-02, 7.19474703e-02, 8.23481157e-02, 1.21979758e-01,
          9.69402771e-03, 9.86664295e-02, 1.33347139e-01, 1.60910189e-01,
          1.07683614e-01, 1.47517636e-01, 9.83999819e-02, 0.,
          6.85471250e-03, 1.61659375e-01, 9.73063707e-02, 1.21387385e-01,
          9.92419422e-02, 1.02063686e-01, 9.07493904e-02, 1.36376992e-01,
          1.85898289e-01, 1.41898572e-01, 1.75632939e-01, 1.24081723e-01,
          1.09672248e-01, 9.20089483e-02, 8.98780748e-02, 1.39009356e-01,
          2.32993141e-01, 1.66871816e-01, 9.86818820e-02, 1.40163049e-01,
          1.38924584e-01, 1.48322299e-01, 7.90608525e-02, 0.,
          1.52971163e-01, 8.28634053e-02, 7.04788342e-02, 1.15678929e-01,
          7.79438242e-02, 8.89049768e-02, 1.26427576e-01, 1.21428818e-01,
          9.72154811e-02, 7.44735748e-02, 1.50192067e-01, 1.05996370e-01,
          1.75875634e-01, 7.44934157e-02, 1.97927162e-01, 1.26272738e-01,
          2.16710344e-01, 1.21209003e-01, 1.04228243e-01, 1.28396481e-01 ]
      - [ 1.71573773e-01, 1.07139431e-01, 1.70770109e-01, 1.10644855e-01,
          1.09911121e-01, 1.43056408e-01, 8.46270174e-02, 6.86731562e-02,
          1.10327631e-01, 9.69951302e-02, 1.35537833e-01, 0.,
          9.73325782e-03, 5.19289523e-02, 1.23664327e-01, 1.91652387e-01,
          1.83795467e-01, 1.33734703e-01, 1.03444457e-02, 0.,
          4.67309840e-02, 1.23799086e-01, 8.07882324e-02, 1.25848949e-01,
          1.14438593e-01, 1.18231863e-01, 1.03643961e-01, 0.,
          1.55573219e-01, 1.77839503e-01, 1.13854825e-01, 1.73233643e-01,
          1.03621580e-01, 6.68651909e-02, 1.23183675e-01, 1.63050920e-01,
          1.76111251e-01, 1.50047660e-01, 1.65355071e-01, 1.69934765e-01,
          1.67476252e-01, 1.22314438e-01, 1.15895951e-02, 1.11112364e-01,
          9.88297090e-02, 1.04960322e-01, 9.05340910e-02, 1.34908929e-01,
          1.11883201e-01, 1.02532886e-01, 9.92309824e-02, 9.85437185e-02,
          1.26498058e-01, 0., 1.02760367e-01, 2.11402968e-01,
          1.23699687e-01, 9.90181193e-02, 1.99869290e-01, 2.30416760e-01,
          8.40346664e-02, 1.13231331e-01, 1.06418498e-01, 1.32813722e-01 ]
      - [ 1.67212665e-01, 2.05667138e-01, 1.20660543e-01, 1.38046354e-01,
          1.67333633e-01, 1.15383737e-01, 1.15921624e-01, 0.,
          1.11576021e-01, 3.77968326e-02, 1.32628530e-01, 1.12921044e-01,
          8.82214215e-03, 1.22503396e-02, 1.77226007e-01, 1.18578210e-01,
          1.19952179e-01, 1.41273960e-01, 0., 4.70903330e-03,
          1.00464746e-01, 9.43412855e-02, 1.25174493e-01, 1.16520137e-01,
          1.18618444e-01, 8.55858475e-02, 9.55556631e-02, 1.32782474e-01,
          1.54624969e-01, 2.24933460e-01, 1.09021693e-01, 2.03777120e-01,
          3.09789144e-02, 1.33585066e-01, 1.11858346e-01, 1.03877664e-01,
          1.61447361e-01, 1.38044670e-01, 2.02303946e-01, 1.57222912e-01,
          1.50532812e-01, 1.46786436e-01, 0., 0., 1.09350629e-01,
          7.26006180e-02, 1.01874888e-01, 1.12469196e-01, 9.60308388e-02,
          1.12674072e-01, 1.31169826e-01, 9.38168988e-02, 0., 0.,
          1.20755017e-01, 1.69531271e-01, 1.61175475e-01, 1.54180244e-01,
          1.47299916e-01, 2.09726021e-01, 1.33026183e-01, 9.68710184e-02,
          9.13819224e-02, 1.15452327e-01 ]
      - [ 1.12736277e-01, 1.48913369e-01, 1.58634380e-01, 2.30601862e-01,
          1.21688306e-01, 1.50013357e-01, 6.56933039e-02, 1.16110317e-01,
          5.09653054e-03, 1.12017617e-01, 1.05561920e-01, 7.82981217e-02,
          1.19014591e-01, 0., 1.33460164e-01, 1.77505299e-01,
          1.72465488e-01, 1.55336022e-01, 0., 0., 1.61605373e-01,
          7.47214183e-02, 7.66246915e-02, 1.21265605e-01, 1.08914830e-01,
          1.13859698e-01, 1.31553307e-01, 1.29866645e-01, 2.29866683e-01,
          1.21762604e-01, 1.68643221e-01, 1.19281270e-01, 7.10009784e-02,
          8.70672464e-02, 1.05216719e-01, 9.95136499e-02, 2.03820467e-01,
          1.11982025e-01, 1.98048010e-01, 4.56462465e-02, 1.71562329e-01,
          1.51388481e-01, 1.00714527e-02, 0., 3.81912179e-02,
          1.28936976e-01, 9.76765081e-02, 1.14400588e-01, 7.03631565e-02,
          1.01194106e-01, 1.26826480e-01, 9.76507813e-02, 0., 0.,
          1.48071438e-01, 1.95718378e-01, 9.01242420e-02, 1.13263555e-01,
          1.71814963e-01, 1.87266767e-01, 1.19954176e-01, 1.37623146e-01,
          9.53371823e-02, 1.08163603e-01 ]
      - [ 1.65364325e-01, 2.07382604e-01, 1.08331695e-01, 1.35340974e-01,
          1.56007454e-01, 1.21515729e-01, 7.73103908e-02, 1.17598064e-01,
          9.38649476e-02, 1.31479710e-01, 7.66659975e-02, 1.04769729e-01,
          9.11956374e-03, 1.17733069e-02, 1.80115074e-01, 1.04210623e-01,
          1.66046500e-01, 1.79375768e-01, 1.28334574e-02, 0.,
          1.27049536e-01, 1.04404122e-01, 1.05780311e-01, 1.27413645e-01,
          1.15600832e-01, 8.58295560e-02, 9.86678526e-02, 1.30959630e-01,
          1.90878868e-01, 1.63754299e-01, 1.65295258e-01, 1.14796743e-01,
          8.97359923e-02, 1.09181292e-01, 1.43608063e-01, 9.42325071e-02,
          1.31791696e-01, 1.73589021e-01, 1.62404761e-01, 1.63893387e-01,
          1.75987571e-01, 1.14039175e-01, 0., 0., 1.26571357e-01,
          8.40504169e-02, 7.24653378e-02, 1.13025256e-01, 1.15015596e-01,
          1.27759993e-01, 9.43471119e-02, 1.06600225e-01, 0.,
          2.56770775e-02, 1.70825481e-01, 1.71564445e-01, 8.37678984e-02,
          1.92325324e-01, 1.76334113e-01, 1.62277341e-01, 7.52303526e-02,
          1.32664531e-01, 1.30625784e-01, 4.81093414e-02 ]
      - [ 1.72812492e-01, 1.81063637e-01, 1.55100897e-01, 1.37011722e-01,
          1.76825330e-01, 9.14782882e-02, 9.67976972e-02, 9.88082290e-02,
          1.23144448e-01, 8.27431753e-02, 9.25776213e-02, 1.35243475e-01,
          1.19189024e-02, 6.43562898e-03, 1.74697787e-01, 1.26229838e-01,
          1.49070680e-01, 1.81699008e-01, 0., 0., 1.22441992e-01,
          1.01863153e-01, 1.06541239e-01, 1.28201887e-01, 1.16508678e-01,
          8.59477669e-02, 1.00034669e-01, 1.33330315e-01, 1.56588227e-01,
          2.25507677e-01, 1.20103456e-01, 1.37199849e-01, 1.04361482e-01,
          7.90476650e-02, 1.04615852e-01, 1.19520754e-01, 1.36485770e-01,
          1.85808316e-01, 1.12867706e-01, 1.99705541e-01, 1.97724596e-01,
          7.07256347e-02, 0., 0., 7.89159536e-02, 9.55835506e-02,
          1.09939449e-01, 1.05541870e-01, 4.21666279e-02, 1.05172396e-01,
          9.56394821e-02, 1.17496878e-01, 0., 3.46980616e-02,
          1.60894394e-01, 1.34112149e-01, 1.69574514e-01, 1.23023883e-01,
          2.08258867e-01, 1.33954048e-01, 7.73944929e-02, 1.34721950e-01,
          1.40919372e-01, 1.16546303e-01 ]
      - [ 1.46559075e-01, 9.89330560e-02, 1.74257681e-01, 2.19786242e-01,
          9.85259488e-02, 1.32644564e-01, 1.02359824e-01, 1.28786519e-01,
          7.01408908e-02, 9.07580182e-02, 9.84985754e-02, 9.66238752e-02,
          1.05542272e-01, 5.40077724e-02, 7.39293173e-02, 2.29524195e-01,
          1.49287164e-01, 1.48005530e-01, 5.15010692e-02, 0.,
          1.29363209e-01, 1.30575463e-01, 9.11755860e-02, 1.35496244e-01,
          1.10864654e-01, 1.09140143e-01, 1.26306742e-01, 1.09906808e-01,
          2.26576969e-01, 1.19129837e-01, 1.49546236e-01, 1.82698876e-01,
          8.01363140e-02, 1.16085328e-01, 7.76833445e-02, 0.,
          1.71153024e-01, 1.45899206e-01, 1.17750868e-01, 2.35283747e-01,
          1.70382649e-01, 4.02480140e-02, 0., 0., 1.70260035e-02,
          9.05312225e-02, 1.00502752e-01, 1.33582041e-01, 7.28571042e-02,
          9.45202634e-02, 9.85712484e-02, 1.00520737e-01, 0., 0.,
          5.11627197e-02, 2.04534337e-01, 2.01413482e-01, 1.30487666e-01,
          1.23645023e-01, 1.82303905e-01, 0., 1.15401797e-01,
          1.50794208e-01, 1.30318642e-01 ]
      - [ 8.94844905e-02, 2.05831483e-01, 1.27791137e-01, 1.53884888e-01,
          1.41292781e-01, 1.39588296e-01, 1.00869782e-01, 1.32247746e-01,
          6.48386627e-02, 8.39933529e-02, 1.43009752e-01, 1.13937289e-01,
          1.54824099e-02, 0., 1.73883766e-01, 1.69679508e-01,
          1.82344630e-01, 1.62163794e-01, 0., 6.78062858e-03,
          1.00386992e-01, 1.04485892e-01, 1.03848837e-01, 1.43138722e-01,
          1.39682189e-01, 1.03489138e-01, 1.24668203e-01, 1.03626192e-01,
          1.77840769e-01, 1.30263597e-01, 1.69236735e-01, 1.18687801e-01,
          1.06839463e-01, 7.89293200e-02, 1.13599218e-01, 8.05210173e-02,
          1.59109324e-01, 1.65987313e-01, 1.43804014e-01, 1.32129252e-01,
          2.01873437e-01, 1.38017938e-01, 0., 0., 7.09474385e-02,
          8.50280672e-02, 8.74258205e-02, 1.66214094e-01, 9.33997147e-03,
          1.01916768e-01, 1.80467919e-01, 0., 0., 0., 4.98828962e-02,
          2.26452067e-01, 1.62884921e-01, 9.92832333e-02, 1.80147529e-01,
          1.04085773e-01, 1.34429514e-01, 1.31342188e-01, 1.39217928e-01,
          1.10868976e-01 ]
      - [ 1.43524051e-01, 1.06624573e-01, 1.71649456e-01, 1.55097827e-01,
          9.88482535e-02, 1.43697649e-01, 9.22158360e-02, 1.13404199e-01,
          4.99524847e-02, 1.23304576e-01, 1.09743267e-01, 1.06433094e-01,
          1.43626137e-02, 7.11976318e-03, 8.69492367e-02, 2.34392345e-01,
          1.76598221e-01, 1.73307180e-01, 0., 5.98698342e-03,
          7.11928457e-02, 1.21118158e-01, 1.29533723e-01, 4.42970768e-02,
          1.26193762e-01, 1.23523206e-01, 1.16695903e-01, 1.08123399e-01,
          1.57534257e-01, 1.76975399e-01, 1.87737614e-01, 6.57666698e-02,
          1.12756915e-01, 1.21972710e-01, 9.08478200e-02, 1.37408659e-01,
          1.60142034e-01, 1.39636278e-01, 1.94120437e-01, 1.52389616e-01,
          1.28951952e-01, 1.73781365e-01, 0., 0., 1.03913672e-01,
          7.70223141e-02, 1.25609383e-01, 9.40886736e-02, 9.60219949e-02,
          9.29581970e-02, 7.93742836e-02, 1.26349136e-01, 0., 0.,
          1.82744905e-01, 1.60514131e-01, 1.23923488e-01, 1.14879526e-01,
          2.11797014e-01, 1.62027404e-01, 1.07637547e-01, 1.16769679e-01,
          1.29636019e-01, 1.30466834e-01 ]
      - [ 9.22298059e-02, 1.47383556e-01, 1.99108496e-01, 1.78664163e-01,
          7.43149668e-02, 1.08824700e-01, 1.11667283e-01, 1.10378645e-01,
          1.02647580e-01, 7.20812529e-02, 7.54097775e-02, 9.61984396e-02,
          9.50512849e-03, 0., 1.69604823e-01, 1.35375440e-01,
          1.79479331e-01, 1.31710082e-01, 1.01405174e-01, 0.,
          9.99385417e-02, 1.37490824e-01, 9.12522897e-02, 1.13682508e-01,
          3.59260081e-03, 1.34544417e-01, 8.58886316e-02, 1.25178307e-01,
          2.52711445e-01, 1.09700456e-01, 1.50642067e-01, 1.14939295e-01,
          1.03717521e-01, 6.92224354e-02, 1.13861389e-01, 8.82546753e-02,
          2.34757841e-01, 1.71625301e-01, 1.13236912e-01, 1.72923595e-01,
          1.29720137e-01, 1.31582603e-01, 6.76909983e-02, 0.,
          9.98875350e-02, 1.18088923e-01, 1.22051768e-01, 6.70056418e-02,
          1.15266986e-01, 1.16252601e-01, 1.17552578e-01, 1.11476175e-01,
          2.40998995e-02, 9.06382799e-02, 1.85881913e-01, 1.27319530e-01,
          1.20197028e-01, 1.19904786e-01, 2.08317831e-01, 1.68664962e-01,
          1.67421699e-01, 1.19135581e-01, 1.19416922e-01, 0. ]
      - [ 1.14675842e-01, 2.05138281e-01, 1.57938957e-01, 1.21103071e-01,
          1.86577052e-01, 1.51812822e-01, 1.18389674e-01, 1.28151283e-01,
          1.44850299e-01, 8.75763670e-02, 1.01804599e-01, 1.33303493e-01,
          3.34971100e-02, 6.79827258e-02, 2.28260040e-01, 1.29241273e-01,
          1.44971684e-01, 2.31833711e-01, 0., 6.55555632e-03,
          1.36168785e-02, 0., 1.31679159e-02, 7.30098085e-03,
          3.52341048e-02, 6.42929822e-02, 1.14907190e-01, 8.29083994e-02,
          2.21116453e-01, 1.75789759e-01, 1.36190176e-01, 3.69472690e-02,
          1.91751584e-01, 1.09008864e-01, 1.31016403e-01, 1.81082621e-01,
          1.24562100e-01, 1.11795075e-01, 1.91530347e-01, 1.50657102e-01,
          2.67743021e-01, 8.55635554e-02, 0., 0., 1.02932602e-01,
          8.63663629e-02, 1.05608933e-01, 1.14798695e-01, 0.,
          1.27248317e-01, 0., 0., 5.16257295e-03, 0., 4.88245999e-03,
          6.55555632e-03, 1.51643515e-01, 3.00901115e-01, 1.72372416e-01,
          1.10791652e-02, 9.69935022e-03, 8.89303088e-02, 7.80658722e-02,
          6.32038563e-02 ]
      - [ 1.80791900e-01, 2.07222596e-01, 2.00308099e-01, 1.26442626e-01,
          1.63436122e-02, 1.63836315e-01, 1.39943764e-01, 0.,
          1.28138572e-01, 1.20125987e-01, 1.55620143e-01, 1.27716083e-02,
          9.27192625e-03, 9.47520062e-02, 1.22076318e-01, 1.59061059e-01,
          1.26126513e-01, 7.33388141e-02, 1.84759945e-01, 9.03089065e-03,
          0., 7.87355378e-03, 1.49002401e-02, 0., 2.83002332e-02,
          7.79672945e-03, 7.08010467e-03, 1.29978567e-01, 1.86647743e-01,
          2.16846004e-01, 9.87525210e-02, 4.90395837e-02, 1.73143983e-01,
          1.34139195e-01, 7.42968023e-02, 1.66400552e-01, 1.99022576e-01,
          2.04978585e-01, 1.22351579e-01, 1.96374610e-01, 2.20169261e-01,
          1.09992251e-01, 4.33922708e-02, 1.13128521e-01, 0.,
          1.51632831e-01, 1.09798223e-01, 9.96040478e-02, 3.78823057e-02,
          1.24229953e-01, 1.04506053e-01, 0., 4.14653122e-03, 0.,
          4.93108435e-03, 2.67609246e-02, 1.67425931e-01, 2.98332602e-01,
          1.77833527e-01, 6.30946234e-02, 8.74396339e-02, 9.87619981e-02,
          8.61551538e-02, 8.29889402e-02 ]
      - [ 1.62334487e-01, 1.30050987e-01, 1.96472630e-01, 2.24357679e-01,
          1.74379200e-01, 1.15073889e-01, 5.83388917e-02, 1.18757337e-01,
          1.44042835e-01, 9.58557948e-02, 1.06310561e-01, 1.08829357e-01,
          1.08625352e-01, 1.30528614e-01, 1.39527202e-01, 1.61685005e-01,
          9.06570181e-02, 1.57473698e-01, 2.16294661e-01, 0.,
          1.26663800e-02, 0., 3.34638869e-03, 0., 4.10033204e-02,
          1.21225705e-02, 1.28483206e-01, 1.22524686e-01, 2.12496907e-01,
          2.14475721e-01, 1.28181458e-01, 7.82387331e-02, 9.24938768e-02,
          1.07553281e-01, 1.23548485e-01, 1.13911219e-01, 2.16180295e-01,
          1.43445224e-01, 1.30212560e-01, 2.22861543e-01, 2.12403581e-01,
          5.84351011e-02, 0., 0., 1.27980992e-01, 7.89895728e-02,
          1.25673026e-01, 1.20921001e-01, 3.68772447e-02, 7.29684681e-02,
          3.42185199e-02, 0., 0., 0., 4.73250821e-03, 1.00080371e-02,
          2.20074430e-01, 2.45171055e-01, 1.93677336e-01, 7.07675098e-03,
          9.81670525e-03, 6.62509128e-02, 4.01139930e-02, 8.97118151e-02 ]
      - [ 9.67177302e-02, 2.08686382e-01, 1.96475789e-01, 1.86580971e-01,
          1.23342074e-01, 8.48655328e-02, 1.06748842e-01, 8.00231025e-02,
          1.90589651e-01, 1.19654816e-02, 9.85540524e-02, 1.33076876e-01,
          3.19091268e-02, 6.53349459e-02, 1.58184469e-01, 2.06943765e-01,
          7.51583800e-02, 1.91810697e-01, 1.87972650e-01, 1.09292818e-02,
          1.59671679e-02, 8.50430038e-03, 8.51565786e-03, 8.93081911e-03,
          3.80272493e-02, 6.45745769e-02, 1.17835589e-01, 1.17761746e-01,
          1.84824646e-01, 2.28540495e-01, 1.15346357e-01, 9.86538753e-02,
          0., 1.14265226e-01, 9.02910680e-02, 1.77276894e-01,
          1.72356695e-01, 1.92328781e-01, 1.21924102e-01, 1.91246048e-01,
          2.53370285e-01, 0., 0., 0., 1.45382911e-01, 9.18854922e-02,
          8.22572783e-02, 1.74884513e-01, 0., 8.60870928e-02,
          1.76853929e-02, 0., 0., 0., 0., 8.33402481e-03, 1.29176334e-01,
          3.26868147e-01, 1.63831219e-01, 7.29198335e-03, 5.15621109e-03,
          8.02584961e-02, 3.77673842e-02, 8.52044374e-02 ]
      - [ 1.76223844e-01, 1.27437234e-01, 1.79248199e-01, 1.21119827e-01,
          1.39894873e-01, 1.67649865e-01, 1.10953428e-01, 1.28067613e-01,
          1.10107511e-01, 1.33949474e-01, 1.10159777e-01, 8.71979222e-02,
          4.51280251e-02, 1.75198317e-02, 2.05141723e-01, 1.55712813e-01,
          5.71668446e-02, 1.91621616e-01, 1.69539243e-01, 5.20476047e-03,
          1.74199510e-02, 0., 1.04418993e-02, 8.41249619e-03,
          3.73756886e-02, 1.25496015e-02, 1.27893791e-01, 1.14071891e-01,
          2.04151317e-01, 1.48943618e-01, 1.20326273e-01, 8.18884447e-02,
          1.23698354e-01, 1.34839863e-01, 1.72246382e-01, 1.33965060e-01,
          1.61066830e-01, 1.99172363e-01, 1.18185095e-01, 2.46021375e-01,
          1.57499373e-01, 1.11290611e-01, 0., 2.17365474e-02,
          1.07189007e-01, 1.32804275e-01, 1.44646719e-01, 8.07325467e-02,
          0., 1.60920799e-01, 6.63369745e-02, 0., 0., 0., 6.18953817e-03,
          1.09248869e-02, 1.31585374e-01, 2.81931460e-01, 2.36018673e-01,
          7.42333457e-02, 7.27638453e-02, 7.11287260e-02, 4.94690910e-02,
          9.55046937e-02 ]
      - [ 9.38023701e-02, 2.08679736e-01, 1.98238701e-01, 1.70732036e-01,
          1.20606117e-01, 1.06574640e-01, 1.35865986e-01, 1.39364317e-01,
          5.55541590e-02, 1.17215119e-01, 1.37025595e-01, 1.16077825e-01,
          4.22405414e-02, 8.76220763e-02, 2.12626666e-01, 1.41349629e-01,
          9.64130685e-02, 2.10043386e-01, 1.51769862e-01, 9.32656601e-03,
          1.36985555e-02, 0., 0., 7.34477397e-03, 3.96412686e-02,
          7.28927404e-02, 1.18109792e-01, 1.61429569e-01, 1.14538409e-01,
          2.02710763e-01, 1.26402006e-01, 5.48739508e-02, 1.39179364e-01,
          1.35554060e-01, 1.44664630e-01, 1.10682905e-01, 1.94756150e-01,
          1.43863320e-01, 2.28590041e-01, 7.66584873e-02, 2.55807012e-01,
          8.23350698e-02, 0., 0., 1.17737070e-01, 1.41641647e-01,
          1.16626725e-01, 5.29749319e-02, 7.13637993e-02, 1.17623881e-01,
          0., 0., 0., 0., 0., 8.39435961e-03, 1.48956910e-01,
          2.92784631e-01, 1.88016638e-01, 1.43293235e-02, 1.30971801e-02,
          7.66901597e-02, 1.03593193e-01, 7.30956942e-02 ]
      - [ 1.75076321e-01, 1.78993568e-01, 1.39592230e-01, 2.33348727e-01,
          1.86166137e-01, 8.02421570e-02, 1.18754111e-01, 1.44429564e-01,
          3.58760469e-02, 1.22981668e-01, 1.55632839e-01, 1.41465470e-01,
          1.10562602e-02, 1.44544631e-01, 1.01823971e-01, 1.45027995e-01,
          7.53965080e-02, 1.19948693e-01, 2.37889186e-01, 0.,
          1.07629290e-02, 0., 4.64858487e-03, 4.91527980e-03,
          4.59200963e-02, 0., 1.71109900e-01, 1.07255809e-01,
          2.38145456e-01, 1.77162662e-01, 8.00901875e-02, 8.40059370e-02,
          1.02562077e-01, 1.11730441e-01, 6.33188188e-02, 1.68309599e-01,
          2.09834024e-01, 1.29365370e-01, 1.84292927e-01, 1.65603757e-01,
          1.94381997e-01, 1.15952283e-01, 0., 0., 1.11013323e-01,
          1.14454843e-01, 1.46749929e-01, 1.23414487e-01, 9.71412361e-02,
          8.21745098e-02, 3.83254364e-02, 0., 7.39731034e-03, 0.,
          3.28704575e-03, 7.94460624e-03, 1.21433780e-01, 3.00595462e-01,
          1.51754498e-01, 1.30046085e-02, 6.11827597e-02, 7.72071332e-02,
          5.22038937e-02, 5.94166145e-02 ]
      - [ 1.68322980e-01, 1.83616281e-01, 1.29730284e-01, 1.43230781e-01,
          1.93807632e-01, 1.15755066e-01, 1.02311954e-01, 1.20057464e-01,
          1.35497212e-01, 1.13477774e-01, 1.08507045e-01, 1.08506791e-01,
          1.18884891e-01, 1.34799376e-01, 1.82180688e-01, 1.23129085e-01,
          1.29956618e-01, 1.42027646e-01, 1.94208652e-01, 1.22665241e-02,
          1.24642383e-02, 0., 8.05356819e-03, 6.24307524e-03,
          3.55312638e-02, 6.29008487e-02, 1.11250997e-01, 1.10840887e-01,
          2.14694068e-01, 1.33450687e-01, 8.52544978e-02, 4.82042097e-02,
          1.71969593e-01, 1.07068263e-01, 1.38194501e-01, 1.79222926e-01,
          2.02589050e-01, 1.24054842e-01, 1.82357103e-01, 9.99659002e-02,
          2.48808607e-01, 1.39590085e-01, 0., 0., 1.41673535e-01,
          1.08730875e-01, 7.21982345e-02, 1.02929577e-01, 6.95921704e-02,
          1.21405773e-01, 4.57972661e-02, 0., 1.20737655e-02, 0., 0.,
          7.94656295e-03, 3.00056487e-02, 3.14659506e-01, 2.11969420e-01,
          7.35186832e-03, 1.61829293e-02, 7.87553117e-02, 6.61446750e-02,
          1.10051617e-01 ]
      - [ 1.55053154e-01, 2.64805704e-01, 9.92704630e-02, 1.22436628e-01,
          1.49517700e-01, 1.07433155e-01, 1.22187525e-01, 1.18211433e-01,
          1.43477872e-01, 1.19817838e-01, 1.33629486e-01, 5.31921303e-03,
          9.45904665e-03, 1.01739138e-01, 1.62991971e-01, 1.45554513e-01,
          1.14895493e-01, 1.94510624e-01, 1.19963266e-01, 5.31921303e-03,
          1.03618670e-02, 0., 7.11434428e-03, 5.31921303e-03,
          3.52864638e-02, 3.55717214e-03, 1.08889274e-01, 1.06996991e-01,
          1.76434532e-01, 1.84109718e-01, 1.27102137e-01, 1.10594906e-01,
          8.39411840e-02, 1.10783689e-01, 1.58334658e-01, 1.58078611e-01,
          2.29266256e-01, 1.54962987e-01, 1.62624031e-01, 1.48710012e-01,
          2.43915260e-01, 6.80913329e-02, 0., 1.27417520e-01,
          1.01855673e-01, 1.06792420e-01, 1.29261032e-01, 1.19606301e-01,
          1.14465103e-01, 1.10013157e-01, 0., 0., 0., 0., 8.08212534e-03,
          6.75446121e-03, 9.36285183e-02, 3.42066020e-01, 1.78220063e-01,
          0., 1.37397405e-02, 8.19577724e-02, 7.82220811e-02, 0. ]
      - [ 1.82248920e-01, 1.21098995e-01, 2.48748139e-01, 1.66754141e-01,
          1.18502289e-01, 1.30159199e-01, 1.13603957e-01, 1.02919571e-01,
          1.35561839e-01, 8.50466490e-02, 1.34056345e-01, 1.26637354e-01,
          1.03297690e-02, 0., 1.43675253e-01, 1.73374474e-01,
          1.32274240e-01, 1.92530513e-01, 1.39866576e-01, 0.,
          9.86315124e-03, 6.87535014e-03, 2.03374568e-02, 0.,
          3.40599045e-02, 4.17563543e-02, 8.72616693e-02, 1.23636179e-01,
          2.13443324e-01, 1.92356303e-01, 1.61202341e-01, 9.20856223e-02,
          5.35881445e-02, 1.38857186e-01, 1.27320305e-01, 1.39647141e-01,
          1.48852319e-01, 2.05642194e-01, 2.08126485e-01, 1.51708513e-01,
          1.99344262e-01, 1.08186066e-01, 0., 0., 1.05352446e-01,
          1.49272531e-01, 9.41599384e-02, 1.24008641e-01, 0.,
          9.45765674e-02, 5.43997325e-02, 0., 0., 6.87535014e-03,
          6.90793293e-03, 0., 1.50161579e-01, 3.34128678e-01,
          1.53084010e-01, 1.58682670e-02, 6.42937003e-03, 6.03384972e-02,
          3.88132967e-02, 8.50845203e-02 ]
      - [ 9.02490243e-02, 1.88113302e-01, 1.73705131e-01, 1.71775997e-01,
          7.33394101e-02, 1.51030704e-01, 1.23633429e-01, 0.,
          1.16874680e-01, 1.30931929e-01, 1.34402916e-01, 4.35694233e-02,
          7.38560082e-03, 7.80811831e-02, 1.80954173e-01, 1.77244619e-01,
          7.52625614e-02, 1.77116618e-01, 1.48472652e-01, 1.50104929e-02,
          1.34842005e-02, 0., 9.48673394e-03, 7.58272316e-03,
          3.43781002e-02, 1.09847113e-02, 1.03060398e-02, 1.18534617e-01,
          1.65172532e-01, 2.11739153e-01, 8.99443775e-02, 7.95338452e-02,
          1.03576697e-01, 1.11280978e-01, 1.33910239e-01, 1.72574833e-01,
          1.87085152e-01, 2.42080271e-01, 1.24374680e-01, 1.26715034e-01,
          2.43234590e-01, 1.11805841e-01, 0., 1.00427873e-01,
          1.32994592e-01, 1.06842749e-01, 9.91814360e-02, 1.54138520e-01,
          1.17105298e-01, 1.57181054e-01, 2.91366298e-02, 0., 0., 0.,
          5.07087260e-03, 1.05185788e-02, 2.13906482e-01, 2.76313603e-01,
          1.94497377e-01, 6.12558685e-02, 8.98186788e-02, 9.48224664e-02,
          1.00299865e-01, 0. ]
      - [ 1.47479922e-01, 1.95324123e-01, 1.73114151e-01, 1.71011120e-01,
          1.54344529e-01, 1.45597935e-01, 1.15916789e-01, 1.23297244e-01,
          7.41754994e-02, 9.75383148e-02, 1.56486258e-01, 1.14207126e-01,
          1.04788048e-02, 4.98013608e-02, 1.89868376e-01, 1.63549438e-01,
          8.43275562e-02, 1.27664879e-01, 2.46963412e-01, 0.,
          1.04788048e-02, 0., 8.15794617e-03, 4.98021068e-03,
          4.06963900e-02, 1.25161372e-02, 1.28181279e-01, 1.39230177e-01,
          2.30748743e-01, 1.76659197e-01, 1.16183527e-01, 8.19004998e-02,
          1.55748948e-01, 1.10825196e-01, 1.23008624e-01, 1.27567872e-01,
          1.93131343e-01, 1.43461883e-01, 1.82832435e-01, 1.35098219e-01,
          2.29582757e-01, 1.05772384e-01, 0., 0., 1.13252781e-01,
          1.13397226e-01, 7.05342963e-02, 1.13875724e-01, 9.92122814e-02,
          0., 9.64665860e-02, 0., 0., 5.92250191e-03, 0., 9.77000035e-03,
          1.37957990e-01, 3.08337778e-01, 1.66555256e-01, 4.98021068e-03,
          0., 6.69617131e-02, 1.08340263e-01, 0. ]
      - [ 1.36798054e-01, 1.82741717e-01, 1.42563403e-01, 2.53850788e-01,
          1.31438389e-01, 1.14174947e-01, 1.07501350e-01, 1.48962870e-01,
          1.17425695e-01, 1.10372439e-01, 7.71012679e-02, 1.15183018e-01,
          1.19249851e-01, 3.89714241e-02, 1.89376175e-01, 1.78797156e-01,
          4.64879535e-02, 2.37575501e-01, 1.77786082e-01, 9.03476588e-03,
          1.44259771e-02, 6.83169207e-03, 8.97947047e-03, 8.13172478e-03,
          4.42981310e-02, 1.07253529e-02, 1.65753633e-01, 1.41640529e-01,
          2.23980337e-01, 1.73800901e-01, 9.36315283e-02, 8.60413164e-02,
          1.22744739e-01, 1.09868638e-01, 1.61243439e-01, 6.56422526e-02,
          1.67636648e-01, 1.66975796e-01, 1.97489202e-01, 1.22915976e-01,
          2.46041641e-01, 6.72484934e-02, 0., 0., 7.78192878e-02,
          1.00985996e-01, 1.43215328e-01, 7.20778406e-02, 3.80062833e-02,
          7.41742253e-02, 5.83944730e-02, 0., 0., 0., 8.90153833e-03,
          7.11497804e-03, 1.30635455e-01, 3.01638007e-01, 1.68187484e-01,
          7.52317347e-03, 7.52317347e-03, 5.82952835e-02, 8.05429146e-02,
          4.56331111e-02 ]
      - [ 2.64681578e-01, 2.44269535e-01, 1.28606066e-01, 8.77203941e-02,
          0., 0., 0., 6.94591329e-02, 0., 0., 1.22448340e-01, 0.,
          7.51921386e-02, 1.17530987e-01, 1.15767069e-01, 1.78992584e-01,
          3.07156146e-01, 1.38801083e-01, 1.33174896e-01, 1.89029753e-01,
          0., 0., 0., 0., 7.11658895e-02, 0., 1.05014309e-01,
          1.55022264e-01, 1.42542109e-01, 1.01289645e-01, 1.23265304e-01,
          1.65132418e-01, 7.13058412e-02, 4.11905088e-02, 1.05847903e-01,
          0., 0., 9.81086493e-02, 9.14784223e-02, 1.46779776e-01,
          3.52421731e-01, 1.63528904e-01, 0., 0., 0., 0., 0., 0.,
          7.26905540e-02, 0., 0., 0., 1.88035965e-01, 1.20074801e-01,
          1.16077580e-01, 1.23349838e-01, 3.34092140e-01, 1.18950687e-01,
          9.88504440e-02, 1.23206198e-01, 1.64679065e-01, 1.04977645e-01,
          0., 0. ]
      - [ 3.06221008e-01, 1.65114820e-01, 7.23335892e-02, 7.85252750e-02,
          0., 0., 0., 1.23260178e-01, 2.55333573e-01, 1.04463346e-01, 0.,
          7.85252750e-02, 7.85252750e-02, 0., 0., 6.20293096e-02,
          2.76880860e-01, 0., 6.53745756e-02, 0., 1.15720429e-01, 0.,
          7.47744143e-02, 8.75316635e-02, 2.87652493e-01, 0., 0.,
          9.55629349e-02, 0., 8.22364464e-02, 1.71376616e-01,
          1.37419000e-01, 2.28628039e-01, 5.77698424e-02, 0., 0.,
          8.75745863e-02, 5.26674800e-02, 1.72363609e-01, 2.39355162e-01,
          1.95649967e-01, 7.36411512e-02, 0., 0., 1.23849168e-01, 0.,
          7.36411512e-02, 1.74956039e-01, 2.62480468e-01, 7.83669427e-02,
          0., 1.18119702e-01, 0., 6.53745756e-02, 0., 1.23667046e-01,
          2.84587711e-01, 1.73219442e-01, 8.64602923e-02, 0.,
          9.54863951e-02, 0., 0., 1.46090463e-01 ]
      - [ 2.56591409e-01, 2.07772553e-01, 1.69131368e-01, 8.80331546e-02,
          0., 0., 0., 6.30257279e-02, 0., 0., 1.19586021e-01, 0.,
          7.12704659e-02, 1.17774427e-01, 1.22383744e-01, 1.82015523e-01,
          3.37252527e-01, 1.65453911e-01, 1.36848837e-01, 1.93279132e-01,
          0., 0., 0., 0., 7.42526203e-02, 0., 0., 2.04685718e-01,
          1.74688116e-01, 0., 1.19715184e-01, 1.12246655e-01,
          4.31982800e-02, 0., 7.27425888e-02, 6.25164360e-02, 0.,
          7.42682740e-02, 8.03066939e-02, 1.69171900e-01, 3.59211951e-01,
          1.94765776e-02, 0., 0., 0., 0., 0., 0., 7.35351890e-02, 0., 0.,
          0., 1.91846937e-01, 1.24224931e-01, 1.49284586e-01,
          8.03652406e-02, 3.63360047e-01, 1.09524839e-02, 8.89902860e-02,
          8.16971362e-02, 2.30334908e-01, 0., 0., 0. ]
      - [ 2.10553676e-01, 2.56351888e-01, 1.87607676e-01, 0., 0., 0.,
          4.32097390e-02, 0., 0., 0., 1.38697162e-01, 0., 1.21743560e-01,
          6.88707083e-02, 1.78612366e-01, 1.48068488e-01, 2.99478978e-01,
          1.66381553e-01, 1.38525382e-01, 1.95197091e-01, 0., 0., 0., 0.,
          3.49093266e-02, 0., 0., 2.09725335e-01, 1.77514687e-01,
          1.24821745e-01, 3.93853560e-02, 1.77214444e-01, 0., 0., 0.,
          1.28148913e-01, 9.72502679e-02, 7.38173202e-02, 1.23277999e-01,
          1.30219981e-01, 3.34012121e-01, 1.36721432e-01, 3.68944518e-02,
          0., 0., 0., 0., 0., 6.56417310e-02, 0., 0., 0., 1.62785068e-01,
          1.53795153e-01, 1.09881155e-01, 8.77086446e-02, 3.47327143e-01,
          1.09835498e-01, 9.44874808e-02, 1.01955891e-01, 1.97468370e-01,
          0., 0., 0. ]
      - [ 1.96897119e-01, 8.01055431e-02, 7.05631748e-02, 1.38805464e-01,
          1.16007067e-01, 0., 4.14835364e-02, 0., 4.94614914e-02, 0., 0.,
          0., 2.46301711e-01, 1.09783761e-01, 1.34849280e-01,
          9.41100940e-02, 1.50141686e-01, 7.40839466e-02, 9.59187895e-02,
          7.24563301e-02, 2.48494253e-01, 8.10258016e-02, 9.31332111e-02,
          9.05256197e-02, 1.13982663e-01, 0., 0., 0., 2.04701588e-01,
          1.27050743e-01, 1.55466408e-01, 8.51032808e-02, 0., 0.,
          9.48610082e-02, 0., 2.93847471e-01, 1.82084963e-01,
          1.20234646e-01, 1.25421628e-01, 1.24325842e-01, 1.57290593e-01,
          1.62768096e-01, 1.39607325e-01, 1.50858268e-01, 1.11844882e-01,
          7.23707154e-02, 6.67148381e-02, 1.82527035e-01, 8.13051090e-02,
          0., 1.27328113e-01, 1.89961389e-01, 0., 1.29296258e-01,
          1.43015578e-01, 2.30550781e-01, 1.48345336e-01, 7.85837844e-02,
          1.55832767e-01, 1.52082369e-01, 1.05784729e-01, 8.12881812e-02,
          1.31552950e-01 ]
      - [ 1.58927158e-01, 1.51458561e-01, 1.35041565e-01, 1.58982858e-01,
          1.02771446e-01, 1.00099005e-01, 8.63205865e-02, 7.28875697e-02,
          8.03631768e-02, 1.23661511e-01, 8.46072957e-02, 5.82708195e-02,
          1.26556292e-01, 0., 1.07346237e-01, 0., 1.48322254e-01,
          1.03681698e-01, 0., 0., 2.26592541e-01, 0., 1.03091925e-01,
          7.68953413e-02, 0., 0., 3.14027593e-02, 1.72127292e-01,
          2.55043566e-01, 1.14451356e-01, 2.48915143e-02, 8.34805891e-02,
          2.53091067e-01, 1.00120761e-01, 1.29168168e-01, 1.37293443e-01,
          7.93395266e-02, 0., 8.03907886e-02, 1.26431584e-01,
          3.29604417e-01, 2.62307953e-02, 0., 8.36438239e-02,
          1.14449687e-01, 1.03813842e-01, 7.84521401e-02, 0.,
          1.88936546e-01, 7.06145391e-02, 8.96324217e-02, 1.45322874e-01,
          1.58270121e-01, 0., 1.21599883e-01, 1.84990555e-01,
          1.95062578e-01, 1.74409643e-01, 1.42542809e-01, 1.12383857e-01,
          1.42479748e-01, 1.03959940e-01, 1.24455906e-01, 1.46629155e-01 ]
      - [ 2.36787766e-01, 1.71620503e-01, 6.68506920e-02, 1.31508172e-01,
          1.02358416e-01, 8.98037627e-02, 8.09324384e-02, 3.90764400e-02,
          5.91085367e-02, 6.75547197e-02, 9.35237631e-02, 7.02829957e-02,
          1.64314717e-01, 1.39998555e-01, 8.45227167e-02, 5.61672598e-02,
          9.24009979e-02, 8.09198022e-02, 5.74881881e-02, 1.03614457e-01,
          2.24474728e-01, 1.09979443e-01, 1.05766773e-01, 6.82019144e-02,
          0., 0., 0., 0., 2.33225569e-01, 1.41989455e-01, 1.56235009e-01,
          1.07412331e-01, 4.23156982e-03, 0., 0., 1.07424699e-01,
          3.17032099e-01, 1.79634646e-01, 1.93471283e-01, 1.07285179e-01,
          8.86650756e-02, 8.71369466e-02, 0., 1.62681147e-01,
          2.82193094e-01, 0., 2.26385705e-02, 0., 2.18358487e-01,
          7.72647411e-02, 7.53090009e-02, 7.75416493e-02, 1.51995808e-01,
          0., 3.49339694e-02, 1.03113562e-01, 2.68717229e-01,
          8.83873925e-02, 1.43368870e-01, 1.19919106e-01, 1.69411168e-01,
          0., 7.66509846e-02, 6.58664703e-02 ]
      - [ 2.24019751e-01, 1.92205876e-01, 2.04844892e-01, 1.80415601e-01,
          1.04370512e-01, 0., 6.47783056e-02, 7.77105689e-02,
          6.95269853e-02, 4.45883162e-02, 7.99614564e-02, 6.88171834e-02,
          4.39640414e-03, 0., 5.09232050e-03, 0., 2.59116679e-01,
          5.09232050e-03, 8.44271854e-03, 0., 1.71103671e-01,
          8.05202723e-02, 7.24549219e-02, 1.09920904e-01, 1.09530538e-01,
          6.95112422e-02, 1.03719115e-01, 1.09080665e-01, 2.27600530e-01,
          1.57380566e-01, 1.39040381e-01, 1.01046950e-01, 4.67195325e-02,
          0., 0., 1.10795431e-01, 2.17175946e-01, 1.89525113e-01,
          1.62104815e-01, 7.01282918e-02, 1.55530751e-01, 9.85873342e-02,
          9.80725139e-02, 2.02342615e-01, 1.11609124e-01, 0., 0., 0.,
          1.71598554e-01, 8.00530836e-02, 0., 1.28587246e-01,
          1.57916561e-01, 4.58310768e-02, 2.04813674e-01, 6.87872544e-02,
          2.30167791e-01, 1.40387252e-01, 7.94032142e-02, 1.86320350e-01,
          2.33477354e-01, 0., 9.27479640e-02, 6.86466172e-02 ]
      - [ 2.21527874e-01, 1.35551110e-01, 0., 1.93288624e-01,
          1.55114636e-01, 1.21245801e-01, 3.31845088e-03, 0.,
          7.71302208e-02, 0., 0., 1.26040608e-01, 2.79748499e-01,
          7.06948787e-02, 9.59561169e-02, 6.28917590e-02, 2.80863911e-01,
          9.10358578e-02, 4.68128026e-02, 0., 4.96224128e-03, 0., 0., 0.,
          3.94632528e-03, 0., 0., 0., 9.08228382e-02, 9.22049880e-02,
          1.00464962e-01, 2.15044394e-01, 8.80933180e-02, 1.52753010e-01,
          1.22576274e-01, 1.74899712e-01, 3.17604542e-01, 1.03324242e-01,
          9.62027535e-02, 1.24872521e-01, 2.37721220e-01, 1.49253786e-01,
          1.39765903e-01, 1.60377815e-01, 2.24696949e-01, 1.00054711e-01,
          7.84994364e-02, 3.99613418e-02, 0., 0., 0., 0., 0., 0., 0., 0.,
          3.58720213e-01, 9.00106728e-02, 1.07718810e-01, 1.18050717e-01,
          8.91205743e-02, 0., 0., 0. ]
      - [ 1.87210873e-01, 1.09780908e-01, 1.63502857e-01, 1.24605916e-01,
          1.92766249e-01, 8.03027526e-02, 4.71732765e-02, 1.05021305e-01,
          1.87146679e-01, 7.68133765e-03, 6.42672852e-02, 0.,
          1.56037092e-01, 1.28604680e-01, 1.41174823e-01, 9.52041373e-02,
          1.63107798e-01, 1.21543512e-01, 1.19326323e-01, 1.05790444e-01,
          1.09617293e-01, 0., 6.42938763e-02, 1.53396100e-01,
          1.63155988e-01, 8.03005546e-02, 5.88278398e-02, 1.25583008e-01,
          1.35059968e-01, 1.96247041e-01, 1.33054554e-01, 1.38127759e-01,
          1.73130333e-01, 5.96422218e-02, 6.43081963e-02, 1.25670820e-01,
          1.50914952e-01, 1.22538202e-01, 2.03587607e-01, 8.49629790e-02,
          1.43728018e-01, 1.21258892e-01, 1.50179669e-01, 1.06456243e-01,
          1.48141548e-01, 0., 6.40428141e-02, 1.32274717e-01,
          1.68900952e-01, 5.73671609e-02, 0., 5.35805300e-02,
          1.53673381e-01, 1.74682841e-01, 1.41264588e-01, 5.45756966e-02,
          1.49840295e-01, 1.37690291e-01, 1.54392943e-01, 9.62113440e-02,
          1.67279884e-01, 6.39897361e-02, 6.55651316e-02, 1.30446345e-01 ]
      - [ 1.44992083e-01, 1.29492685e-01, 1.50696173e-01, 7.38324746e-02,
          1.09594770e-01, 4.33250070e-02, 7.37798214e-02, 2.60294825e-01,
          0., 6.20257854e-02, 7.24818185e-02, 0., 1.36851639e-01,
          1.35727093e-01, 1.17751569e-01, 2.01322958e-01, 1.03475198e-01,
          4.23323624e-02, 7.49319270e-02, 1.29366115e-01, 2.08775848e-01,
          1.13651246e-01, 8.19479600e-02, 4.80400696e-02, 0., 0., 0.,
          7.23300353e-02, 1.79711878e-01, 1.82841718e-01, 1.78376362e-01,
          1.22905560e-01, 9.73151103e-02, 1.01221487e-01, 0.,
          1.30145133e-01, 6.77619353e-02, 1.70983166e-01, 1.33106560e-01,
          2.64550030e-01, 1.02649488e-01, 0., 0., 7.40572140e-02,
          1.37983873e-01, 0., 0., 2.46769726e-01, 0., 0., 1.14083558e-01,
          1.59804627e-01, 1.34553403e-01, 3.19907889e-02, 2.49966234e-02,
          2.31380463e-01, 1.30411550e-01, 1.75806910e-01, 1.57281265e-01,
          8.36664587e-02, 1.96580067e-01, 9.80724096e-02, 8.17473978e-02,
          1.65757120e-01 ]
      - [ 1.35220140e-01, 1.50926173e-01, 8.88452902e-02, 1.92484125e-01,
          1.49280563e-01, 1.11561581e-01, 6.05721846e-02, 1.07697956e-01,
          5.15552871e-02, 8.23991671e-02, 1.02510236e-01, 1.08232811e-01,
          1.35867000e-01, 7.56161064e-02, 9.04263854e-02, 8.27978328e-02,
          7.17050284e-02, 8.52721259e-02, 0., 0., 2.45797753e-01, 0.,
          9.59040821e-02, 7.17050284e-02, 0., 0., 0., 8.06058720e-02,
          3.28387618e-01, 0., 8.52721259e-02, 1.01406217e-01,
          2.39228830e-01, 8.26292783e-02, 1.02087371e-01, 1.08425207e-01,
          1.39715105e-01, 8.22197050e-02, 0., 7.43797049e-02,
          3.10525715e-01, 1.29323184e-01, 2.22992934e-02, 8.01699236e-02,
          1.07832052e-01, 9.59177464e-02, 3.82860377e-02, 1.30292982e-01,
          2.09007546e-01, 9.59041119e-02, 0., 7.17332363e-02,
          1.93713352e-01, 5.62158376e-02, 1.18177019e-01, 9.52662751e-02,
          2.08452284e-01, 1.88806653e-01, 1.22250624e-01, 1.29820779e-01,
          1.57316744e-01, 5.28688394e-02, 9.51509252e-02, 1.65562838e-01 ]
      - [ 2.11743936e-01, 1.42817408e-01, 1.33893520e-01, 1.76296964e-01,
          1.89640880e-01, 0., 0., 0., 0., 5.04382066e-02, 1.36815071e-01,
          1.59559250e-01, 1.85443386e-01, 1.00840330e-01, 8.93376488e-03,
          7.67772198e-02, 1.12782016e-01, 1.51904002e-01, 8.95544142e-02,
          7.47102425e-02, 1.59852430e-01, 1.69379652e-01, 1.13048315e-01,
          0., 3.75618553e-03, 0., 0., 8.47850442e-02, 1.85571879e-01,
          2.06616312e-01, 1.76391363e-01, 1.37909055e-01, 1.63064793e-01,
          9.95344520e-02, 0., 7.36927539e-02, 1.47799388e-01, 0.,
          2.46541634e-01, 1.40553698e-01, 2.17383727e-01, 1.45461753e-01,
          0., 0., 7.49535710e-02, 0., 1.00084208e-01, 1.11682050e-01,
          1.16258755e-01, 1.13410376e-01, 7.69362152e-02, 1.17199764e-01,
          0., 0., 1.45782351e-01, 2.32921138e-01, 1.15584791e-01,
          2.31884047e-01, 1.25009954e-01, 0., 1.41677961e-01,
          1.01977199e-01, 1.43629566e-01, 7.36928955e-02 ]
      - [ 3.14720422e-01, 3.78888547e-02, 7.71440193e-02, 7.49449655e-02,
          1.95929214e-01, 9.79605019e-02, 9.03796777e-02, 5.11247143e-02,
          1.25876129e-01, 7.15385899e-02, 9.58859250e-02, 1.02257639e-01,
          7.49035254e-02, 0., 0., 0., 1.40493885e-01, 8.28292295e-02,
          9.40932408e-02, 8.27994719e-02, 2.09779873e-01, 1.56923711e-01,
          5.96887432e-02, 0., 1.87625643e-02, 0., 0., 1.66747257e-01,
          2.79989272e-01, 1.45691365e-01, 1.59842864e-01, 8.44057873e-02,
          6.27664803e-03, 0., 0., 1.75507888e-01, 2.97582358e-01,
          1.40542060e-01, 1.46972165e-01, 8.28171000e-02, 1.33502260e-01,
          8.40942189e-02, 0., 1.20028421e-01, 2.59441644e-01, 0., 0., 0.,
          1.58313796e-01, 7.87467584e-02, 1.28661498e-01, 4.17063525e-03,
          1.05929583e-01, 5.58289625e-02, 8.26754943e-02, 6.52616173e-02,
          2.47751474e-01, 1.30369887e-01, 1.70511663e-01, 0.,
          2.06206992e-01, 4.00316566e-02, 7.40285143e-02, 5.88069893e-02 ]
      - [ 2.58678287e-01, 2.21656114e-01, 2.03330427e-01, 1.55941084e-01,
          4.39658016e-03, 0., 0., 5.52840717e-03, 0., 0., 0., 0.,
          2.24671930e-01, 5.48604466e-02, 1.45082980e-01, 1.06772751e-01,
          2.56977260e-01, 1.43883780e-01, 1.88144982e-01, 1.77881345e-01,
          0., 0., 0., 0., 0., 0., 0., 0., 1.98577523e-01, 9.64582190e-02,
          1.04440026e-01, 2.46670157e-01, 6.77411035e-02, 4.36542630e-02,
          1.70278810e-02, 9.70822573e-02, 9.62994099e-02, 0.,
          9.42946374e-02, 1.54619858e-01, 3.84796411e-01, 3.69706843e-03,
          0., 0., 0., 2.05897596e-02, 0., 2.87362915e-02, 0., 0., 0., 0.,
          1.58978805e-01, 1.37931362e-01, 1.37813866e-01, 1.61436453e-01,
          3.35081160e-01, 9.87521634e-02, 0., 9.72722471e-02,
          1.71973184e-01, 0., 0., 0. ]
      - [ 1.56009957e-01, 1.42143592e-01, 1.58583030e-01, 1.09194927e-01,
          1.14977196e-01, 1.05255984e-01, 0., 0., 1.09813988e-01,
          1.11095585e-01, 9.73222107e-02, 1.94022983e-01, 1.41100064e-01,
          1.07173987e-01, 9.42530781e-02, 1.17941059e-01, 2.04487368e-01,
          1.64025098e-01, 1.73800200e-01, 1.86015397e-01, 0., 0.,
          4.56088074e-02, 6.85806572e-02, 6.88981935e-02, 0., 0., 0.,
          1.85767308e-01, 8.01575184e-02, 6.97157979e-02, 1.27726421e-01,
          9.22470540e-02, 1.19906783e-01, 9.54505354e-02, 1.05995558e-01,
          2.27735236e-01, 1.35182723e-01, 1.53774574e-01, 2.39568561e-01,
          4.18162420e-02, 7.59288073e-02, 8.14431533e-02, 6.91092536e-02,
          1.79820135e-01, 8.12285617e-02, 7.65523314e-02, 1.53952673e-01,
          7.54996911e-02, 8.62897262e-02, 0., 7.39059746e-02,
          2.57314414e-01, 1.09042853e-01, 1.26701847e-01, 1.19689912e-01,
          1.71917841e-01, 1.96648121e-01, 1.66832387e-01, 1.46647990e-01,
          1.86358601e-01, 0., 0., 0. ]
      - [ 2.77995288e-01, 1.06001250e-01, 1.29090831e-01, 1.29944488e-01,
          0., 0., 0., 0., 0., 0., 0., 0., 9.69449654e-02, 1.57588765e-01,
          1.30318195e-01, 9.03684944e-02, 3.68343949e-01, 2.78758481e-02,
          0., 0., 0., 0., 0., 0., 0., 0., 0., 0., 0., 0., 1.08018324e-01,
          6.16525933e-02, 2.46222183e-01, 1.51323155e-01, 7.11834431e-02,
          0., 1.02321990e-01, 0., 1.08988598e-01, 1.38125136e-01,
          4.46485519e-01, 2.50076950e-02, 0., 0., 0., 7.62656331e-02,
          1.05413422e-01, 0., 2.76294708e-01, 0., 0., 0., 0., 0., 0., 0.,
          4.68470126e-01, 1.15010373e-01, 0., 0., 1.03321940e-01, 0., 0.,
          0. ]
      - [ 2.66094327e-01, 1.69711187e-01, 1.99753135e-01, 6.14105985e-02,
          0., 0., 0., 0., 0., 0., 0., 0., 1.08357929e-01, 1.19130746e-01,
          1.98992804e-01, 1.01539515e-01, 3.65358055e-01, 2.84563750e-02,
          0., 0., 0., 0., 0., 0., 0., 0., 0., 0., 0., 0., 1.09300777e-01,
          1.38825879e-01, 1.71388164e-01, 1.46820307e-01, 1.11378491e-01,
          1.08657680e-01, 0., 1.48110494e-01, 1.55249998e-01,
          2.08777413e-01, 4.01559591e-01, 0., 0., 0., 7.26083592e-02, 0.,
          1.06997050e-01, 0., 1.19839452e-01, 0., 0., 0., 0., 0., 0., 0.,
          4.28075224e-01, 1.74395755e-01, 0., 9.17256474e-02,
          5.42341359e-02, 0., 8.86363685e-02, 1.59332916e-01 ]
      - [ 2.93143511e-01, 1.69362366e-01, 8.54614377e-02, 7.69170299e-02,
          1.22339725e-01, 0., 5.96869215e-02, 0., 2.43870616e-01,
          8.54791328e-02, 0., 8.38430151e-02, 1.06495567e-01, 0., 0., 0.,
          3.11906338e-01, 7.27436393e-02, 0., 0., 1.22339725e-01, 0.,
          7.27436393e-02, 0., 2.99669921e-01, 7.27436393e-02, 0., 0.,
          1.15757219e-01, 0., 1.54312566e-01, 1.08777106e-01,
          2.52209812e-01, 0., 0., 0., 1.44510344e-01, 0., 2.14097232e-01,
          1.33224204e-01, 2.44679451e-01, 0., 0., 0., 1.36779979e-01, 0.,
          8.90923962e-02, 0., 2.73519754e-01, 7.27436393e-02, 0., 0.,
          1.22339725e-01, 0., 7.27436393e-02, 8.64648595e-02,
          3.18767160e-01, 1.54312566e-01, 0., 7.69170299e-02,
          8.65072533e-02, 0., 7.27436393e-02, 1.22309811e-01 ]
      - [ 3.08348686e-01, 1.98031932e-01, 1.07338570e-01, 7.39830211e-02,
          0., 0., 0., 0., 0., 0., 0., 0., 0., 9.83917043e-02,
          2.39536569e-01, 7.65284970e-02, 3.92588794e-01, 3.03307176e-02,
          0., 0., 0., 0., 0., 0., 0., 0., 0., 0., 0., 0., 1.14971891e-01,
          1.45928308e-01, 1.63797230e-01, 0., 1.15731135e-01,
          1.32179782e-01, 1.01761140e-01, 6.72351569e-02, 1.75281748e-01,
          2.26293236e-01, 3.82912844e-01, 1.69835612e-02, 8.51598382e-02,
          0., 0., 8.42541009e-02, 0., 0., 9.03701857e-02, 0., 0., 0., 0.,
          0., 0., 0., 4.67859656e-01, 5.15000634e-02, 5.42610325e-02,
          9.77313966e-02, 0., 0., 6.11251071e-02, 1.56608209e-01 ]
      - [ 2.65302330e-01, 2.37776279e-01, 1.02176510e-01, 6.38673529e-02,
          0., 0., 0., 0., 0., 0., 0., 0., 0., 1.01620980e-01,
          2.48001084e-01, 7.90402070e-02, 4.32467610e-01, 3.31543945e-02,
          0., 0., 0., 0., 0., 0., 0., 0., 0., 0., 0., 0., 1.38421148e-01,
          0., 1.36930928e-01, 0., 1.51174337e-01, 1.08426407e-01,
          1.05009049e-01, 1.11286387e-01, 1.27612978e-01, 2.16106817e-01,
          3.79212499e-01, 1.75409727e-02, 8.73287842e-02, 0., 0.,
          8.62547532e-02, 0., 0., 9.33361873e-02, 3.53405774e-02, 0., 0.,
          0., 0., 0., 0., 4.75946188e-01, 5.31903282e-02, 6.24033809e-02,
          1.06210284e-01, 0., 0., 7.01770857e-02, 1.21828586e-01 ]
      - [ 6.81411028e-02, 1.57766864e-01, 1.88793704e-01, 9.33459029e-02,
          1.42484576e-01, 0., 7.57816136e-02, 0., 8.00869167e-02,
          1.13679156e-01, 8.68693814e-02, 8.44101086e-02, 1.67564169e-01,
          1.43110454e-01, 9.54961330e-02, 1.48114949e-01, 2.15381071e-01,
          1.96758583e-01, 1.76310733e-01, 1.14007525e-01, 7.68734589e-02,
          8.77614990e-02, 0., 0., 0., 0., 8.40914771e-02, 0.,
          1.73321664e-01, 5.58046810e-02, 9.90902334e-02, 1.38874009e-01,
          1.91727281e-01, 1.23019166e-01, 6.16779886e-02, 0.,
          1.39048770e-01, 1.28946647e-01, 1.95012212e-01, 2.91173071e-01,
          8.70201439e-02, 1.02306068e-01, 0., 1.35614753e-01,
          9.73960161e-02, 0., 8.80825967e-02, 1.53444946e-01, 0.,
          8.60604420e-02, 0., 0., 2.58631289e-01, 1.45147249e-01,
          9.97171775e-02, 1.48975000e-01, 1.96615532e-01, 1.94099367e-01,
          1.84359059e-01, 0., 1.74507260e-01, 0., 6.53659850e-02,
          1.00370035e-01 ]
